tree
version=v4
num_class=1
num_tree_per_iteration=1
label_index=0
max_feature_idx=37
objective=binary sigmoid:1
feature_names=age monthly_income_kes crb_score num_active_loans_other_lenders total_outstanding_debt_kes num_defaults_last_24m max_days_past_due_24m crb_listed_negative avg_monthly_inflow_kes avg_monthly_outflow_kes inflow_volatility_cv avg_closing_balance_kes salary_regularity_score num_bounced_payments_6m mobile_money_txn_count_monthly num_distinct_income_sources app_tenure_days app_sessions_per_week contacts_permission_granted sms_permission_granted num_support_tickets_90d profile_completeness_pct days_since_last_app_open prior_completed_loans_with_us prior_defaults_with_us prior_avg_days_late_with_us prior_repayment_rate_with_us requested_amount_kes debt_to_income_ratio requested_to_income_ratio net_cashflow_kes outflow_to_inflow_ratio is_digital_channel acquisition_channel region employment_type gender device_type
feature_infos=[18:65] [8000:120300] [219:900] [0:7] [0:138100] [0:5] [0:179] [0:1] [5000:201100] [3000:204100] [0.029999999999999999:0.82099999999999995] [-5000:197700] [0.050000000000000003:1] [0:8] [5:80] [1:3] [-1:754] [-1:19] [-1:1] [-1:1] [-1:4] [-1:100] [-1:12] [0:3] [0:3] [0:199] [0.002:1] [2000:131600] [0:12.824999999999999] [0.08771929824561403:1.9624999999999999] [-47800:71200] [0.33840304182509506:1.4275491949910555] [0:1] -1:0:1 -1:7:6:2:8:3:0:1:10:5:4:9:11 -1:1:3:2:0 -1:1:0 -1:4:2:1:0:3
tree_sizes=3422 3394 3448 3428 3445 3451 3438 3444 3426 3421 3462 3448 3419 3434 3468 3420 3417 3446 3426 3428 3434 3436 3430 3435 3458 3411 3457 3406 3429 3468 3452 3423 3431 3448 3446 3439 3453 3464 3442 3460 3455 3430 3441 3444 3433 3445 3428 3399 3411 3441 3451 3444 3474 3444 3460 3430 3435 3451 3461 3433 3441 3445 3465 3426 3448 3448 3428 3435 3448 3448 3467 3450 3429 3427 3440 3406 3423 3416 3435 3455 3461 3443 3437 3442 3450 3427 3423 3427 3440 3423 3443 3444 3448 3451 3433 3464 3445 3422 3409 3459 3463 3458 3455 3477 3433 3446 3442 3446 3449 3445 3430 3459 3440 3431 3419 3445 3452 3432 3434 3457 3449 3453 3461 3467 3459 3448 3434 3459 3419 3464 3422

Tree=0
num_leaves=31
num_cat=0
split_feature=2 25 12 2 12 2 2 12 2 2 2 13 9 12 2 12 12 29 12 12 6 11 21 9 4 13 27 0 4 10
split_gain=818.099 241.434 122.577 84.8055 83.389 64.8283 38.7576 19.5007 14.9296 13.8352 13.306 12.6884 12.0335 10.01 8.7862 15.4483 8.15408 7.33801 7.20859 7.04498 6.95872 6.66825 6.43248 6.20277 6.07039 5.44768 5.24771 6.29568 4.83245 4.47251
threshold=605.50000000000011 27.000000000000004 0.61950000000000005 746.50000000000011 0.76850000000000007 664.50000000000011 541.50000000000011 0.79350000000000021 592.50000000000011 805.50000000000011 630.50000000000011 1.0000000180025095e-35 37650.000000000007 0.49150000000000005 753.50000000000011 0.6715000000000001 0.63450000000000017 1.1409353557240884 0.79350000000000021 0.90450000000000019 12.500000000000002 3950.0000000000005 53.850000000000001 53350.000000000007 15250.000000000002 2.5000000000000004 31250.000000000004 34.500000000000007 18850.000000000004 0.16450000000000004
decision_type=2 2 2 2 2 2 2 2 2 2 2 2 2 2 2 2 2 2 2 2 2 2 2 2 2 2 2 2 2 2
left_child=4 2 3 10 8 7 -6 -4 20 22 -2 23 -13 24 15 -7 -10 25 -3 -17 -1 29 -5 -8 -12 28 27 -23 -15 -9
right_child=1 18 5 9 6 14 11 21 16 -11 13 12 -14 17 -16 19 -18 -19 -20 -21 -22 26 -24 -25 -26 -27 -28 -29 -30 -31
leaf_value=0.018044112203076591 0.0068985297185189774 0.028863187789817869 -0.019750956854223255 -0.021655422691779763 0.009229805607138597 -0.028356598798783807 -0.034825483612200461 -0.041087476820328456 0.0095637035112282123 -0.069116390855629095 -0.015027040013845867 0.0084614471157425271 -0.025178110678050581 -0.023957268642672815 -0.065183695842041645 -0.050524175605628004 -0.021025318418591812 -0.0025623394296442441 -0.0037236807948575808 -0.064484091310368516 0.030149895295774179 -0.026338057167650409 -0.048352278422474901 -0.010483249853683218 0.0057182030874099593 -0.0087240650259881418 -0.056848844436662785 -0.050540206205873475 -0.043305317831678319 -0.019446704609592903
leaf_weight=175.48381742835045 26.747533425688744 41.246196404099464 52.495159059762955 13.248778238892553 75.493038266897202 21.248040571808815 39.746334716677666 14.748639926314352 23.497833102941513 26.247579529881477 30.997141540050507 18.998248040676117 16.498478561639786 31.997049331665039 131.73785154521465 117.48916551470757 10.998985707759855 10.998985707759855 9.9990779161453229 74.243153527379036 104.99031811952591 21.498017519712448 20.748086676001549 10.749008759856222 20.748086676001549 9.9990779161453229 30.997141540050507 18.248317196965218 17.498386353254318 17.748363301157951
leaf_count=702 107 165 210 53 302 85 159 59 94 105 124 76 66 128 527 470 44 44 40 297 420 86 83 43 83 40 124 73 70 71
internal_value=-0.0191622 -0.0384486 -0.0430162 -0.0236761 0.011591 -0.051052 -0.00615764 -0.0347073 0.020551 -0.0531082 -0.0114835 -0.0200057 -0.00665848 -0.0158612 -0.0583041 -0.0536606 0.000245387 -0.0231968 0.0233251 -0.0563414 0.0228931 -0.0421573 -0.0386626 -0.0295089 -0.00609098 -0.0274288 -0.047307 -0.0384186 -0.0314678 -0.0299675
internal_weight=1237.39 760.93 709.685 209.231 476.456 500.454 161.485 155.736 314.971 60.2444 148.986 85.9921 35.4967 122.239 344.718 212.98 34.4968 70.4935 51.2453 191.732 280.474 103.24 33.9969 50.4953 51.7452 59.4945 70.7435 39.7463 49.4954 32.497
internal_count=4950 3044 2839 837 1906 2002 646 623 1260 241 596 344 142 489 1379 852 138 282 205 767 1122 413 136 202 207 238 283 159 198 130
is_linear=0
shrinkage=1


Tree=1
num_leaves=31
num_cat=4
split_feature=2 26 2 35 35 2 2 35 16 13 6 2 13 28 2 1 15 10 10 6 34 2 2 0 29 30 0 14 14 1
split_gain=771.013 228.156 112.764 82.3112 72.04 44.3072 28.9607 26.7146 15.4712 12.8514 12.2552 9.23752 8.87713 8.44448 8.01621 8.40682 8.11589 8.00325 7.68033 6.49233 6.4551 11.5601 5.96837 5.88556 5.76151 5.28845 4.75789 4.57696 4.18532 3.85836
threshold=605.50000000000011 0.76050000000000006 679.50000000000011 0 1 546.50000000000011 753.50000000000011 2 38.500000000000007 2.5000000000000004 22.000000000000004 691.50000000000011 1.5000000000000002 0.64174397031539898 655.50000000000011 24550.000000000004 1.5000000000000002 0.16150000000000003 0.12450000000000001 12.500000000000002 3 646.50000000000011 456.50000000000006 33.500000000000007 0.61639826354852267 5250.0000000000009 30.500000000000004 45.500000000000007 54.500000000000007 39950.000000000007
decision_type=2 2 2 1 1 2 2 1 2 2 2 2 2 2 2 2 2 2 2 2 1 2 2 2 2 2 2 2 2 2
left_child=4 -2 3 9 19 22 7 11 20 14 13 -4 -13 18 16 -16 29 -10 -7 -1 21 -5 -6 -19 -22 -20 -17 -24 -29 -3
right_child=1 2 6 8 5 10 -8 -9 17 -11 -12 12 -14 -15 15 26 -18 23 25 -21 24 -23 27 -25 -26 -27 -28 28 -30 -31
leaf_value=0.035828500574579543 0.041362115422824065 0.024205005854028749 0.0081789976362839165 0.023099831555247974 0.04195576342421186 -0.030503674654009941 -0.041915450716540958 -0.033664861148097844 -0.042622834060159959 0.030174710206234981 0.026269906837295621 -0.022538532683079173 -0.0024146573837166129 0.0074509047692788329 -0.022569578153832662 -0.0088057494798843509 -0.0026551790755903388 -0.011554819176176718 -0.015853998057906035 0.047324537071747802 -0.00610295304178442 -0.014495289902089471 0.028018334263965192 -0.033495920628064071 -0.028649730561094433 0.0044654819387973136 0.016233211447128693 -0.0039022419573727972 0.021323404425520762 0.0035695189250044279
leaf_weight=184.98571844398975 51.240800857543945 31.99632066488266 17.995536535978317 11.495962947607042 23.49832858145237 12.497763946652411 185.56772367656231 139.89286394417286 37.227653384208679 21.998552337288857 11.248155295848845 49.732764139771461 32.74319052696228 31.495292350649834 13.496853202581404 10.496594205498697 22.747117877006531 26.991543009877205 19.247061029076576 106.47849234938622 17.243822991847992 14.241695538163183 42.497454956173897 21.490899443626404 28.736241906881332 23.745953634381294 13.496243521571158 10.249432042241098 10.499540433287619 11.749111607670782
leaf_count=740 205 128 72 46 94 50 743 560 149 88 45 199 131 126 54 42 91 108 77 426 69 57 170 86 115 95 54 41 42 47
internal_value=3.94443e-05 -0.0186905 -0.0231326 -0.00838581 0.0298925 0.0125331 -0.0328598 -0.0255804 -0.0219299 0.00958216 -0.000663644 -0.00965871 -0.0147956 -0.00465857 0.0056425 -0.00527341 0.0117714 -0.0318531 -0.0115517 0.0389934 -0.0125031 0.00202255 0.0285682 -0.0222224 -0.0172133 -0.00493149 0.00544427 0.0224606 0.00961505 0.0190611
internal_weight=1237.02 760.581 709.341 283.409 476.443 184.979 425.932 240.364 157.428 125.981 98.2342 100.471 82.476 86.9861 103.982 37.4897 66.4926 85.7101 55.4908 291.464 71.7177 25.7377 86.7448 48.4824 45.9801 42.993 23.9928 63.2464 20.749 43.7454
internal_count=4950 3044 2839 1134 1906 740 1705 962 630 504 393 402 330 348 416 150 266 343 222 1166 287 103 347 194 184 172 96 253 83 175
cat_boundaries=0 1 2 3 4
cat_threshold=12 12 12 370
is_linear=0
shrinkage=0.03


Tree=2
num_leaves=31
num_cat=1
split_feature=2 26 12 12 2 2 2 12 2 2 2 34 16 12 5 12 14 6 16 12 29 12 18 14 15 2 12 14 14 9
split_gain=727.311 215.377 112.215 75.0412 74.193 58.6628 34.574 26.3684 13.8556 13.7354 12.2669 10.1137 9.93019 8.48982 8.21335 7.5659 6.93336 6.18701 5.90423 5.47904 5.411 5.25111 5.32325 5.12546 4.99452 7.73053 6.18195 5.98945 4.9184 4.57968
threshold=605.50000000000011 0.76050000000000006 0.61950000000000005 0.76850000000000007 746.50000000000011 679.50000000000011 541.50000000000011 0.85450000000000015 805.50000000000011 592.50000000000011 630.50000000000011 0 38.500000000000007 0.79350000000000021 1.0000000180025095e-35 0.63450000000000017 51.500000000000007 12.500000000000002 98.500000000000014 0.89950000000000008 0.62053508150248071 0.40850000000000003 1.0000000180025095e-35 36.500000000000007 1.5000000000000002 646.50000000000011 0.70950000000000013 37.500000000000007 33.500000000000007 38150.000000000007
decision_type=2 2 2 2 2 2 2 2 2 2 2 1 2 2 2 2 2 2 2 2 2 2 2 2 2 2 2 2 2 2
left_child=3 13 4 9 10 7 -5 24 18 17 -3 -12 20 -2 16 -11 19 -1 -6 -8 -9 -13 28 29 25 27 -26 -4 -23 -21
right_child=1 2 5 6 8 -7 14 12 -10 15 11 21 -14 -15 -16 -17 -18 -19 -20 23 -22 22 -24 -25 26 -27 -28 -29 -30 -31
leaf_value=0.035205086364403962 0.046199371102346717 0.025036560944419656 -0.0061899746938093832 0.026735367795311066 -0.0032749943070764869 -0.038542058452883797 0.00092411419036845686 -0.00075594771895483119 -0.047486232328660442 0.027100834412432363 -0.003808482846504915 0.032522199785389998 -0.037280316284971651 0.012602712153000075 0.022250199564839104 -0.0022814818780092427 0.013415464879823166 0.04663473229533556 -0.028139362844012177 -0.0087405271534083655 -0.024088610228358433 -0.012221612910651386 0.024222141254530028 -0.00041264036352443482 0.0031887692275958876 -0.011534674920903407 -0.023362142753607793 0.017828513531637856 0.012315831270611817 -0.037450429630813492
leaf_weight=175.38405956327915 40.949794471263885 26.745578229427338 14.992742627859114 75.467615813016891 15.982341542840002 301.07068927586079 28.742713913321495 13.992288261651991 26.169262379407883 23.487979665398598 75.730569317936897 9.9987222850322706 53.411977410316467 10.246481180191038 9.9988549053668958 10.998475700616835 13.995894253253935 104.84966464340687 18.216849073767662 10.997698396444322 23.470747321844101 11.995988920331003 11.247285559773443 11.746350258588789 10.496420353651045 36.726211652159691 25.22966580092907 19.74409656226635 13.494706615805624 10.495168641209601
leaf_count=702 164 107 60 302 64 1207 115 56 105 94 303 40 214 41 40 44 56 420 73 44 94 48 45 47 42 147 101 79 54 42
internal_value=3.18256e-05 -0.0181691 -0.022487 0.0290333 -0.00401257 -0.0301973 0.0121991 -0.0172541 -0.0315133 0.0375373 0.0073833 0.00318766 -0.0289789 0.0402019 -0.000878067 0.0181188 -0.00441441 0.0397817 -0.0173424 -0.00873401 -0.0158539 0.0124433 0.00879381 -0.0166641 -0.00696506 -0.00223533 -0.0158059 0.00768929 0.000719394 -0.0247546
internal_weight=1236.08 759.912 708.716 476.164 209.581 499.135 161.444 198.064 60.3685 314.72 149.213 122.467 90.875 51.1963 85.9767 34.4865 75.9778 280.234 34.1992 61.9819 37.463 46.7367 36.738 33.2392 107.189 71.4631 35.7261 34.7368 25.4907 21.4929
internal_count=4950 3044 2839 1906 839 2000 646 793 242 1260 597 490 364 205 344 138 304 1122 137 248 150 187 147 133 429 286 143 139 102 86
cat_boundaries=0 1
cat_threshold=219
is_linear=0
shrinkage=0.03


Tree=3
num_leaves=31
num_cat=1
split_feature=2 25 12 2 12 2 2 12 2 2 2 34 6 2 12 16 22 12 14 12 12 16 27 29 6 27 12 1 8 14
split_gain=685.84 203.561 105.48 71.864 70.9204 55.4176 32.6279 16.8776 12.948 12.5203 11.4362 9.37383 7.81101 7.7552 16.0347 7.4484 8.21124 7.1639 6.58089 6.44098 6.36119 6.10454 5.97457 5.94031 5.91745 5.82985 5.20705 5.05885 6.43091 4.87457
threshold=605.50000000000011 27.000000000000004 0.61950000000000005 746.50000000000011 0.76850000000000007 664.50000000000011 541.50000000000011 0.79350000000000021 592.50000000000011 805.50000000000011 630.50000000000011 0 22.000000000000004 760.50000000000011 0.6715000000000001 38.500000000000007 1.5000000000000002 0.63450000000000017 51.500000000000007 0.79350000000000021 0.90450000000000019 98.500000000000014 20750.000000000004 1.0127469777720008 12.500000000000002 41050.000000000007 0.89950000000000008 22250.000000000004 41350.000000000007 36.500000000000007
decision_type=2 2 2 2 2 2 2 2 2 2 2 1 2 2 2 2 2 2 2 2 2 2 2 2 2 2 2 2 2 2
left_child=4 2 3 10 8 7 -6 27 24 21 -2 -12 18 14 -7 16 25 -10 26 -3 -16 -5 -13 -24 -1 -9 -8 -4 -29 -28
right_child=1 19 5 9 6 13 12 15 17 -11 11 22 -14 -15 20 -17 -18 -19 -20 -21 -22 -23 23 -25 -26 -27 29 28 -30 -31
leaf_value=0.034201834374462087 0.024346797918832642 0.044367518146204717 -0.015230525299348404 -0.003187984299419841 0.025972046463174869 -0.0080765414520318195 0.00089818848089961523 -0.0088752633745360007 0.026369975188200334 -0.046301992323786824 -0.0035448813676719499 0.0015831189585773875 0.021698271968357347 -0.04319808554795547 -0.029559539224638307 -0.028231521834750903 0.011118919042728376 -0.0022235725534297947 0.013062990414557316 0.013830566753064774 -0.042412768221380043 -0.028524517035315337 0.033749312068332052 0.0048162700527787988 0.045365492276054901 -0.0354046535734064 -0.024142831046297043 0.018023798815859606 -0.0053361157897107402 -0.00040206360989474297
leaf_weight=175.17441542446613 26.735004514455795 41.111966073513031 12.994538277387617 15.980602845549582 75.414577394723892 23.951208040118217 28.742914229631424 25.223161101341248 23.470471248030663 26.085785105824471 75.477853149175644 19.493163958191872 9.996497377753256 115.13836188614368 126.58117705583572 57.843426331877708 9.9926219880580884 10.99844817817211 13.996291264891623 9.993489742279051 77.649341225624084 17.941790148615837 16.2445532232523 10.996629372239111 104.60904072225094 9.9788364320993406 21.480538845062256 16.993821069598198 22.491241663694382 11.74628561735153
leaf_count=702 107 165 52 64 302 96 115 101 94 105 302 78 40 463 508 232 40 44 56 40 312 72 65 44 420 40 86 68 90 47
internal_value=3.28041e-05 -0.0176546 -0.0218542 -0.00390941 0.0282099 -0.0293254 0.0118442 -0.0142115 0.0364861 -0.0310698 0.0072997 0.00323852 -0.000858752 -0.0360497 -0.0320987 -0.0211528 -0.0112804 0.0176247 -0.00430753 0.0391419 -0.0348103 -0.0174307 0.0121286 0.023198 0.0386682 -0.0178947 -0.00851654 -0.00030694 0.0051019 -0.0162494
internal_weight=1234.53 758.899 707.793 208.955 475.629 498.838 161.377 155.518 314.252 60.0082 148.947 122.212 85.9625 343.32 228.182 103.038 45.1946 34.4689 75.966 51.1055 204.231 33.9224 46.7343 27.2412 279.783 35.202 61.9697 52.4796 39.4851 33.2268
internal_count=4950 3044 2839 837 1906 2002 646 623 1260 241 596 489 344 1379 916 413 181 138 304 205 820 136 187 109 1122 141 248 210 158 133
cat_boundaries=0 1
cat_threshold=219
is_linear=0
shrinkage=0.03


Tree=4
num_leaves=31
num_cat=1
split_feature=2 26 12 12 2 2 2 12 2 2 13 9 2 34 16 27 12 12 13 10 9 6 27 29 16 10 15 2 12 14
split_gain=647.321 192.6 100.105 67.0782 66.5927 52.7864 30.7699 24.1668 12.5493 12.2322 11.5743 11.0413 10.9636 9.11562 9.02937 8.21157 7.59443 6.78649 6.26111 6.23272 5.92272 5.68667 5.66311 5.62667 5.31647 4.75756 4.65898 7.27118 5.56906 5.36683
threshold=605.50000000000011 0.76050000000000006 0.61950000000000005 0.76850000000000007 746.50000000000011 679.50000000000011 541.50000000000011 0.85250000000000015 805.50000000000011 592.50000000000011 1.0000000180025095e-35 37650.000000000007 630.50000000000011 0 38.500000000000007 36650.000000000007 0.79350000000000021 0.63450000000000017 1.0000000180025095e-35 0.32050000000000006 53350.000000000007 12.500000000000002 20750.000000000004 1.0127469777720008 98.500000000000014 0.21250000000000002 1.5000000000000002 646.50000000000011 0.70950000000000013 25.500000000000004
decision_type=2 2 2 2 2 2 2 2 2 2 2 2 2 1 2 2 2 2 2 2 2 2 2 2 2 2 2 2 2 2
left_child=3 16 4 9 12 7 -5 26 24 21 20 -12 -3 18 15 -9 -2 -11 -14 25 -8 -1 -15 -24 -6 -20 27 29 -28 -4
right_child=1 2 5 6 8 -7 10 14 -10 17 11 -13 13 22 -16 -17 -18 -19 19 -21 -22 -23 23 -25 -26 -27 28 -29 -30 -31
leaf_value=0.033245814914277978 0.04384410636615662 0.023682532609357963 -0.0089682885834314868 0.02523856667802038 -0.0031032947846451539 -0.036499688250461612 -0.015103679189151358 -0.0037242945571306038 -0.045190098089451139 0.025666840554775961 0.026413053501250519 -0.0058108967142084418 -0.01946573414055805 0.0015400383070681154 -0.035210645380805622 -0.031499346777491666 0.012014986190118522 -0.0021671384716413214 0.0041741467334772573 0.010840328153136333 0.008675844050701929 0.044173826907375716 0.032855466998767964 0.0046939633517717799 -0.02671305573371956 -0.017848902374182157 0.0032195503970298364 -0.01065831427862656 -0.021991098478794817 0.015689633439097652
leaf_weight=174.86737902462482 40.73773717880249 26.716700047254562 9.9925052523612958 75.337331473827362 15.978828638792036 299.57975427806377 39.720654308795929 24.459060862660408 25.976608917117119 23.445194110274315 18.990078553557396 16.488092064857483 16.240483567118645 19.493257895112038 53.958592474460602 14.444217517971991 10.239650174975393 10.998394101858137 14.99525338411331 26.993963226675987 10.74189457297325 104.26706579327583 16.240349262952808 10.996773824095724 18.159197807312012 17.494422733783722 10.494773119688032 35.944110676646233 24.941874727606773 23.490793853998184
leaf_count=702 164 107 40 302 64 1207 159 98 105 94 76 66 65 78 217 58 41 44 60 108 43 420 65 44 73 70 42 144 100 94
internal_value=3.06286e-05 -0.0171686 -0.0212557 0.0274266 -0.00379988 -0.0285571 0.0115097 -0.016278 -0.0299217 0.0354881 -0.000825659 0.0119264 0.00698356 0.0030182 -0.0272698 -0.0150727 0.0381457 0.0171478 -0.00362242 0.000606514 -0.00990399 0.037613 0.0118065 0.0225844 -0.0164455 -0.00803178 -0.00621617 -0.00156846 -0.0147517 0.00824019
internal_weight=1232.42 757.569 706.592 474.856 209.286 497.306 161.278 197.726 60.1146 313.578 85.9407 35.4782 149.171 122.455 92.8619 38.9033 50.9774 34.4436 75.7241 59.4836 50.4625 279.134 46.7304 27.2371 34.138 32.4897 104.864 69.4274 35.4366 33.4833
internal_count=4950 3044 2839 1906 839 2000 646 793 242 1260 344 142 597 490 373 156 205 138 303 238 202 1122 187 109 137 130 420 278 142 134
cat_boundaries=0 1
cat_threshold=219
is_linear=0
shrinkage=0.03


Tree=5
num_leaves=31
num_cat=2
split_feature=35 26 5 5 26 4 28 23 12 12 12 10 28 34 30 27 22 29 12 3 16 16 3 10 29 12 12 10 31 11
split_gain=327.094 113.314 108.235 82.573 76.8364 54.7699 37.5127 21.6806 15.6092 14.0555 12.7431 11.6256 11.0847 8.63995 8.13079 7.44921 7.19683 9.07287 7.17083 7.75194 7.16203 7.05441 6.74107 6.10786 4.70095 4.54696 4.47887 4.3505 4.30084 4.65288
threshold=0 0.66200000000000014 1.0000000180025095e-35 1.0000000180025095e-35 0.79200000000000015 14950.000000000002 0.63688813514232512 1.0000000180025095e-35 0.51550000000000018 0.61150000000000004 0.6715000000000001 0.31550000000000006 0.48589798826765657 1 3450.0000000000005 10350.000000000002 3.5000000000000004 0.99449784303337629 0.80750000000000022 2.5000000000000004 77.500000000000014 7.5000000000000009 2.5000000000000004 0.15150000000000002 0.81053893727123572 0.51250000000000007 0.79350000000000021 0.18050000000000002 1.0962696941612606 16450.000000000004
decision_type=1 2 2 2 2 2 2 2 2 2 2 2 2 1 2 2 2 2 2 2 2 2 2 2 2 2 2 2 2 2
left_child=3 26 6 4 -1 9 10 8 -7 15 14 21 -10 20 -3 -6 23 -18 19 27 -11 -8 28 -17 -16 -25 -2 -14 29 -12
right_child=1 2 -4 -5 5 7 11 -9 12 13 22 -13 18 -15 24 16 17 -19 -20 -21 -22 -23 -24 25 -26 -27 -28 -29 -30 -31
leaf_value=0.041888815792967236 0.045909000158083732 0.0059115251437601365 0.029537151554544169 0.04327373234783307 0.018261094281793518 0.033218050404116142 -0.0016203159000697305 -0.0081869027072197613 -0.0081246513714486619 0.012900584387488059 -0.033200537464847038 0.018868000853691835 0.027597261153903506 -0.016418059997518435 -0.030178868829825997 -0.014274319003269772 -0.015075431622118871 0.014020851996816311 -0.0045157072187447817 0.032917524663393746 -0.010345818034169582 -0.017455399007083861 -0.0070260048400981826 0.0028167931615512521 -0.0051785291695842324 0.017992339728702254 0.021169040827849494 0.0088105427707880577 -0.015716717339062557 -0.024346321183834882
leaf_weight=62.490722984075546 16.36311699450016 15.944340437650679 36.839241355657578 81.899449959397316 23.639143109321594 67.191736474633217 46.072960898280144 23.631526380777359 15.423094734549521 22.133031383156776 216.49284729361534 11.953638732433317 14.191809758543966 61.347914963960648 15.413913965225222 9.9626691639423353 38.302239581942558 10.952565506100653 10.463935762643812 31.102615892887115 21.614988803863525 55.451322346925735 14.190645247697828 45.524699196219444 12.68806019425392 28.145094156265259 20.712409675121307 46.800717294216156 26.564928188920021 116.0882426649332
leaf_count=252 66 64 148 331 95 270 185 95 62 89 873 48 57 247 62 40 154 44 42 125 87 223 57 183 51 113 83 188 107 468
internal_value=5.40705e-05 -0.0154574 -0.0190584 0.0153151 0.011159 0.00691683 -0.0225289 0.0182974 0.0217287 -0.00223614 -0.0266756 -0.00707886 0.0147407 -0.0106187 -0.0107613 0.00345507 0.00058954 -0.00831078 0.0182689 0.0208987 0.00120208 -0.0104394 -0.0284859 0.00590301 -0.0199852 0.00893683 0.0338788 0.0139193 -0.0292902 -0.030274
internal_weight=1219.59 604.776 567.7 614.818 532.919 470.428 530.861 208.805 185.174 261.622 417.383 113.478 117.982 105.096 44.0463 156.526 132.887 49.2548 102.559 92.0951 43.748 101.524 373.337 83.6325 28.102 73.6698 37.0755 60.9925 359.146 332.581
internal_count=4909 2435 2286 2474 2143 1891 2138 839 744 1052 1682 456 474 423 177 629 534 198 412 370 176 408 1505 336 113 296 149 245 1448 1341
cat_boundaries=0 1 2
cat_threshold=12 657
is_linear=0
shrinkage=0.03


Tree=6
num_leaves=31
num_cat=1
split_feature=2 26 12 2 35 2 12 2 2 12 2 24 12 16 12 13 1 10 30 12 2 8 16 12 27 4 8 13 14 29
split_gain=610.527 166.832 98.063 75.5055 60.0851 40.7407 31.0728 31.2362 15.6281 11.1735 11.1107 10.8162 14.1307 10.3299 9.58321 9.4813 9.58397 7.88575 7.00965 6.83149 6.46293 5.12702 5.06184 4.99522 4.66748 4.62966 4.32417 5.15533 4.02151 3.90836
threshold=624.50000000000011 0.75750000000000017 0.77950000000000019 684.50000000000011 0 546.50000000000011 0.6695000000000001 768.50000000000011 537.50000000000011 0.85250000000000015 597.50000000000011 1.0000000180025095e-35 0.60050000000000014 121.50000000000001 0.37850000000000006 1.0000000180025095e-35 21050.000000000004 0.31250000000000006 2950.0000000000005 0.55350000000000021 592.50000000000011 33250.000000000007 33.500000000000007 0.7915000000000002 25150.000000000004 9550.0000000000018 64250.000000000007 1.5000000000000002 49.500000000000007 0.85256284768103896
decision_type=2 2 2 2 1 2 2 2 2 2 2 2 2 2 2 2 2 2 2 2 2 2 2 2 2 2 2 2 2 2
left_child=2 23 8 4 15 -4 7 14 -1 10 -7 12 -10 18 -5 21 -17 22 -11 -18 25 -3 28 -2 -20 -14 27 -16 -6 -21
right_child=1 3 5 6 17 9 -8 -9 11 13 -12 -13 20 -15 26 16 19 -19 24 29 -22 -23 -24 -25 -26 -27 -28 -29 -30 -31
leaf_value=0.039929454407721325 0.040975650798531313 -0.014704365544901506 0.022601087525185987 0.016783080458442415 -0.021315389964067899 0.021760366255891912 -0.036895677411692328 -0.03615042753787101 0.031173750284623686 0.017957049886570944 -0.01215253522412124 0.044877369722703786 0.0040309274819591966 -0.023105182413297821 -0.020033222508994579 -0.0038617285373845158 0.033205145124643808 -0.0015196077316607371 -0.022829021250522361 0.0019192587013495827 0.00041046809597332238 0.0086532672798267079 -0.030692261875418219 0.01353773051494319 0.0010186774370094696 0.026033653702695701 0.0057555472973343687 -0.0031336491418873318 -0.0012958661933948387 0.023503765260008243
leaf_weight=177.03163217008114 35.45684526860714 16.977596357464794 77.708012729883194 10.491650044918059 38.79105731844902 19.978545501828194 254.52620290219784 57.824493795633316 79.156928062438965 10.481412798166273 12.723706573247908 24.492180287837982 13.416303485631941 35.84330378472805 45.619752064347267 17.233733043074608 22.966053545475006 14.459861874580382 10.48189662396908 18.977457523345951 26.721777826547623 13.483234405517576 68.648548036813736 10.220371678471563 17.698053225874901 27.056453928351402 10.216130822896956 25.950027614831924 11.945542201399801 10.989784866571425
leaf_count=716 144 68 312 42 156 80 1032 234 319 42 51 99 54 144 183 69 92 58 42 76 107 54 277 41 71 109 41 104 48 44
internal_value=5.66802e-05 -0.0186588 0.0240909 -0.0226403 -0.0089892 0.00634346 -0.0304676 -0.0192258 0.0334344 -0.00563883 0.00862569 0.02632 0.0226512 -0.0119618 -0.00807831 0.00848123 0.0152465 -0.0211247 -0.00100228 0.0213818 0.0120006 -0.00446917 -0.0251753 0.0356618 -0.0087768 0.0192732 -0.0115921 -0.0141575 -0.0168298 0.0108101
internal_weight=1217.57 684.778 532.79 639.101 234.473 184.915 404.628 150.102 347.875 107.207 32.7023 170.844 146.351 74.5047 92.2776 100.628 70.167 133.845 38.6614 52.9333 67.1945 30.4608 119.385 45.6772 28.1799 40.4728 81.7859 71.5698 50.7366 29.9672
internal_count=4909 2763 2146 2578 942 742 1636 604 1404 430 131 688 589 299 370 403 281 539 155 212 270 122 481 185 113 163 328 287 204 120
cat_boundaries=0 1
cat_threshold=12
is_linear=0
shrinkage=0.03


Tree=7
num_leaves=31
num_cat=1
split_feature=2 25 35 2 12 2 25 2 12 2 2 12 23 12 29 16 30 29 14 2 6 16 0 12 31 29 12 28 6 2
split_gain=577.375 137.736 120.2 61.9713 57.039 53.9005 26.5069 19.7153 16.5807 18.5252 14.0633 9.09317 7.92921 7.7915 7.38307 7.38211 9.77102 6.36889 7.27759 6.59834 6.05038 6.86895 5.89319 5.30645 4.7791 4.66871 4.27778 5.77588 4.04269 4.02743
threshold=646.50000000000011 27.000000000000004 0 546.50000000000011 0.6695000000000001 744.50000000000011 11.250000000000002 605.50000000000011 0.85250000000000015 592.50000000000011 680.50000000000011 0.76450000000000007 1.0000000180025095e-35 0.49850000000000005 0.75815313718539534 30.500000000000004 3550.0000000000005 0.71552033046334562 36.500000000000007 709.50000000000011 10.500000000000002 91.500000000000014 28.500000000000004 0.78150000000000019 0.76413629304832387 1.0485402494331069 0.82550000000000001 1.0784912039424677 8.5000000000000018 807.50000000000011
decision_type=2 2 1 2 2 2 2 2 2 2 2 2 2 2 2 2 2 2 2 2 2 2 2 2 2 2 2 2 2 2
left_child=2 4 7 23 5 12 8 -1 9 28 11 -6 17 -9 22 16 -10 20 -19 -20 21 -2 -13 -4 -17 -11 -25 -28 -5 -7
right_child=1 -3 3 6 10 29 -8 13 15 25 -12 14 -14 -15 -16 24 -18 18 19 -21 -22 -23 -24 26 -26 -27 27 -29 -30 -31
leaf_value=0.035821130167286039 0.0027173817720639159 0.034128205716155539 0.03681326617525555 0.0046359238740332018 -0.0027979520717088769 -0.024039172696985911 0.030539262949176939 0.030308001131779408 0.01526973187838504 -0.015985015622407471 -0.035773171238607494 0.0029938261182289243 -0.016731565432315722 0.0095329588141999898 -0.036434652155819008 -0.0073539983647179837 -0.016304857370182644 -0.0019155773249769877 0.027424777623585483 -0.0013494245734239968 0.011607048812978445 -0.022312194766137723 -0.022766089706390616 0.0027487284481101282 -0.029236076882956132 0.0058738990171178342 0.027616774905779969 0.0018436986518938921 0.027363481072708192 -0.041032357936553847
leaf_weight=280.92497383058071 17.725085958838463 36.360144212841988 24.709130078554153 12.466574117541315 19.933868646621704 45.606833726167679 14.659830987453459 25.58173756301403 10.976741895079611 33.92730587720871 262.23892441391945 10.665997862815855 19.703871414065361 46.842484444379807 32.142933532595634 13.384713739156721 26.402822330594063 26.703832358121872 21.967092990875248 9.9773816317319852 13.233922362327574 19.211679548025131 25.513666212558746 12.439919173717497 41.686090409755707 10.478426054120062 40.555627346038818 9.9558932334184629 17.677887290716171 30.616039916872978
leaf_count=1139 71 148 100 50 80 184 59 103 44 136 1068 43 79 188 130 54 106 107 88 40 53 77 103 50 168 42 163 40 71 125
internal_value=6.13137e-05 -0.0211251 0.0201938 0.00418821 -0.0248529 -0.0121047 -0.00567353 0.0313023 -0.00917619 0.00136538 -0.032189 -0.0209826 -0.000152097 0.0174884 -0.0260577 -0.0175256 -0.00672817 0.00309773 0.00966466 0.0188876 -0.00465506 -0.0107785 -0.0154129 0.0247627 -0.0243618 -0.0107961 0.0190447 0.0228006 0.0188375 -0.0317393
internal_weight=1214.27 591.601 622.67 269.321 555.241 204.746 181.66 353.349 167.001 74.5502 350.495 88.2565 128.523 72.4242 68.3226 92.4504 37.3796 108.819 58.6483 31.9445 50.1707 36.9368 36.1797 87.6606 55.0708 44.4057 62.9514 50.5115 30.1445 76.2229
internal_count=4909 2396 2513 1083 2248 824 730 1430 671 299 1424 356 515 291 276 372 150 436 235 128 201 148 146 353 222 178 253 203 121 309
cat_boundaries=0 1
cat_threshold=12
is_linear=0
shrinkage=0.03


Tree=8
num_leaves=31
num_cat=2
split_feature=2 25 35 2 2 35 25 2 13 2 2 9 16 2 13 31 14 0 9 28 30 2 10 9 10 10 13 21 0 28
split_gain=545.731 130.491 113.659 58.5963 42.5082 56.0158 25.1265 18.7542 17.4031 12.739 10.8837 9.87087 7.65928 9.71969 7.45087 6.92805 6.17972 5.79209 5.34616 8.02199 6.42729 5.11359 4.83151 4.21125 4.12032 4.27619 3.92384 3.82676 3.60706 3.56335
threshold=646.50000000000011 42.500000000000007 0 546.50000000000011 744.50000000000011 1 11.250000000000002 605.50000000000011 2.5000000000000004 704.50000000000011 592.50000000000011 33350.000000000007 117.50000000000001 577.50000000000011 1.0000000180025095e-35 0.76194279628784434 47.500000000000007 39.500000000000007 55550.000000000007 0.39776425288784006 5350.0000000000009 661.50000000000011 0.28450000000000003 21450.000000000004 0.25750000000000006 0.27450000000000008 1.5000000000000002 79.350000000000009 28.500000000000004 0.50955766440122363
decision_type=2 2 1 2 2 1 2 2 2 2 2 2 2 2 2 2 2 2 2 2 2 2 2 2 2 2 2 2 2 2
left_child=2 4 7 18 5 8 10 -1 9 11 12 21 15 -14 -9 -5 26 28 19 20 -4 -2 -16 -21 -7 -26 -12 -24 -11 -17
right_child=1 -3 3 6 -6 24 -8 14 -10 17 16 -13 13 -15 22 29 -18 -19 -20 23 -22 -23 27 -25 25 -27 -28 -29 -30 -31
leaf_value=0.034905544656552767 0.0052798368315116551 0.035268307932541237 0.017371475738823364 -0.0094355338267528375 -0.035085771987325348 -0.031020268431569027 0.029781335901916287 -0.0013621962086779252 0.020323824101006784 -0.010769847027682385 -0.02269045107577634 0.013259132231578876 -0.021401711874662076 0.012010764201725661 0.011975470300390239 0.0050831666585148469 -0.0025450878915082844 -0.00074693287283704522 0.038333777445430497 0.0096826038872355295 -0.011053625953318198 -0.014171671619037485 0.038498048906078816 0.032517582781694553 -0.0017049601149813868 -0.023681071545034332 -0.0042133574146804298 0.012159369008562125 -0.033408122913388641 0.028044883910624444
leaf_weight=279.7155703753233 16.981608673930168 33.736378595232964 14.374193221330644 10.470248803496359 201.71894423663616 157.10750956833363 14.633223593235014 15.446338146924971 23.210419803857803 12.663601726293562 59.80705638229847 30.161629140377045 20.401018515229229 10.458167240023611 28.854397818446159 12.210222020745279 27.099563613533974 11.181107163429258 19.065840750932693 12.161330476403235 10.918786987662314 34.369039088487625 18.103074014186863 30.953247010707855 10.340718626976011 38.280221849679947 13.675111666321753 9.9474077969789487 19.858150407671928 12.7088126540184
leaf_count=1139 68 138 58 42 825 640 59 62 93 51 241 121 82 42 116 49 109 45 77 49 44 138 73 125 42 155 55 40 80 51
internal_value=6.11836e-05 -0.0205746 0.0196569 0.00408622 -0.0240781 -0.0176465 -0.00550457 0.0304844 -0.00233375 -0.00697059 -0.00891575 0.000134651 0.000546362 -0.0100364 0.0170129 0.00981769 -0.0150371 -0.0196489 0.0241173 0.0191787 0.00518978 -0.00778229 0.0218776 0.0267913 -0.0271461 -0.0192592 -0.0194546 0.0305886 -0.0257277 0.0180073
internal_weight=1210.61 589.609 621.004 268.937 555.873 354.154 181.463 352.067 148.426 125.215 166.83 81.5123 66.2485 30.8592 72.3512 35.3893 100.582 43.7029 87.4734 68.4076 25.293 51.3506 56.9049 43.1146 205.728 48.6209 73.4822 28.0505 32.5218 24.919
internal_count=4909 2396 2513 1083 2258 1433 730 1430 596 503 671 327 266 124 291 142 405 176 353 276 102 206 229 174 837 197 296 113 131 100
cat_boundaries=0 1 2
cat_threshold=12 12
is_linear=0
shrinkage=0.03


Tree=9
num_leaves=31
num_cat=0
split_feature=2 25 12 12 2 2 2 25 25 2 16 12 12 29 29 6 2 11 2 2 13 2 31 10 14 4 10 16 2 13
split_gain=515.915 123.732 109.482 52.6135 48.5494 47.0637 27.762 14.9128 14.8305 13.1892 12.6628 12.2432 8.26315 7.34226 7.0371 7.96725 6.62131 6.68939 6.49741 10.2384 6.36675 5.84972 5.581 5.45465 5.22986 4.22163 4.14476 4.1149 4.11351 6.03272
threshold=646.50000000000011 27.000000000000004 0.76850000000000007 0.6695000000000001 744.50000000000011 541.50000000000011 581.50000000000011 2.6000000000000005 7.6000000000000005 683.50000000000011 30.500000000000004 0.58450000000000013 0.85450000000000015 0.75534197790156166 0.67384076146375982 10.500000000000002 709.50000000000011 6850.0000000000009 599.50000000000011 581.50000000000011 1.0000000180025095e-35 659.50000000000011 0.76413629304832387 0.26850000000000007 36.500000000000007 20550.000000000004 0.16150000000000003 98.500000000000014 807.50000000000011 1.5000000000000002
decision_type=2 2 2 2 2 2 2 2 2 2 2 2 2 2 2 2 2 2 2 2 2 2 2 2 2 2 2 2 2 2
left_child=2 3 6 4 14 -4 -1 11 10 12 20 27 -5 21 15 25 24 -18 19 -12 -7 -14 -20 26 -16 -2 -13 -8 29 -6
right_child=1 -3 5 9 28 8 7 -9 -10 -11 18 23 13 -15 16 -17 17 -19 22 -21 -22 -23 -24 -25 -26 -27 -28 -29 -30 -31
leaf_value=0.034974619059891146 -0.020922010447231063 0.032570716480450346 0.021788432087686702 -0.010654406407056569 -0.03049255625174601 -0.0084477120087914151 0.031295638080981562 0.039294869979430991 0.020834729692897385 -0.034348436601552915 -0.017964897501871881 0.0074230131802627605 0.00021661494450221698 -0.039857186595891568 0.0010195749385246682 0.0095064499999927502 0.0079535151332519975 -0.022356911258960412 -0.0051785081588930724 0.013239326839803972 0.010297396407909051 -0.028717774067680907 -0.031290799594359237 0.013680649086475847 0.020240078459579897 3.2012094971216253e-05 -0.012280270685132582 0.013580211636641292 -0.039350721189087549 -0.0070416817029233837
leaf_weight=247.01946330070496 27.672366753220558 36.018432691693306 76.757006332278252 46.602011322975159 28.546108439564705 31.381691336631775 26.940074235200882 22.562478050589561 14.147482812404631 252.55703590810299 26.391041621565819 14.931227833032606 12.092248752713205 25.204084649682045 22.707828089594841 15.473321110010145 11.963503539562227 10.704286336898802 10.613724306225775 12.464406594634054 29.89364866912365 11.035627439618109 31.335147097706795 24.891311019659042 27.691096797585487 12.207376241683958 20.652700185775757 29.228153049945831 30.24362026154995 16.792582765221596
leaf_count=1012 111 148 310 188 116 126 109 92 57 1039 106 60 49 103 91 62 48 43 43 50 120 45 127 100 111 49 83 118 125 68
internal_value=6.55367e-05 -0.0200376 0.0191427 -0.0235788 -0.0113282 0.00285932 0.0289 0.017778 -0.00659871 -0.0306647 -0.00958167 0.0130237 -0.0203582 -0.0289196 -8.20091e-06 -0.00792009 0.00603692 -0.00701196 -0.0172328 -0.00779683 0.000733661 -0.0147765 -0.0252203 0.00344761 0.0119495 -0.0148127 -0.0040576 0.022861 -0.0300657 -0.0224713
internal_weight=1206.72 587.512 619.21 551.493 204.002 232.984 386.225 139.206 156.227 347.491 142.08 116.643 94.934 48.332 128.42 55.3531 73.0667 22.6678 80.8043 38.8554 61.2753 23.1279 41.9489 60.4752 50.3989 39.8797 35.5839 56.1682 75.5823 45.3387
internal_count=4909 2396 2513 2248 824 939 1574 562 629 1424 572 470 385 197 515 222 293 91 326 156 246 94 170 243 202 160 143 227 309 184
is_linear=0
shrinkage=0.03


Tree=10
num_leaves=31
num_cat=1
split_feature=35 25 5 5 25 28 28 12 13 23 12 13 11 11 16 12 14 9 12 27 14 31 9 31 27 17 6 6 14 16
split_gain=244.764 92.8928 84.4495 61.2067 58.1106 45.2886 20.4505 14.77 12.3068 12.4094 10.1042 8.16882 7.69217 7.66641 7.52127 6.57761 9.14974 6.46809 6.40468 6.2713 5.96815 5.7552 5.61792 5.36991 4.98838 6.75121 4.93969 4.82762 4.69947 4.83352
threshold=0 27.000000000000004 1.0000000180025095e-35 1.0000000180025095e-35 13.250000000000002 0.28929546981769316 0.63688813514232512 0.61150000000000004 1.5000000000000002 1.0000000180025095e-35 0.75750000000000017 1.0000000180025095e-35 8750.0000000000018 -2549.9999999999995 105.50000000000001 0.90650000000000019 46.500000000000007 44750.000000000007 0.55550000000000022 37350.000000000007 36.500000000000007 0.88916634406275985 55150.000000000007 0.95399279529232783 29050.000000000004 3.5000000000000004 9.5000000000000018 4.5000000000000009 18.500000000000004 169.50000000000003
decision_type=1 2 2 2 2 2 2 2 2 2 2 2 2 2 2 2 2 2 2 2 2 2 2 2 2 2 2 2 2 2
left_child=3 2 6 4 5 7 10 14 9 18 19 -9 -8 -12 -1 16 -14 26 -7 -2 21 -16 -21 -22 25 -20 27 -13 -10 -30
right_child=1 -3 -4 -5 -6 8 12 11 28 -11 13 17 15 -15 20 -17 -18 -19 24 22 23 -23 -24 -25 -26 -27 -28 -29 29 -31
leaf_value=0.0098884280689325917 -0.019982534166900573 0.031354193132459747 0.026490388642107884 0.037746920540742794 0.036284296464920041 0.020731799739516148 -0.014527469948649131 -0.025938738023637626 0.0041220296455592373 -0.013084711716237778 -0.011668210528231455 -0.0058846199592244861 0.022958789203158522 -0.027140300701396846 -0.00080541722643973058 -0.011851457007512105 -0.010797092224189087 -0.022693658244573662 0.01906892839018667 -0.012571045674754873 -0.0048106332249788792 -0.024286079576438295 0.0098292163825764532 0.019376404435057091 -0.0074029441249375888 -0.0007950339511024481 -0.014116577080428766 0.01685742836171613 0.029502213797576348 0.014268574413523825
leaf_weight=62.201947495341301 56.743863373994827 37.0271055996418 36.466331511735916 80.519913092255592 63.936729773879051 46.672463268041611 63.648361682891846 28.635451704263687 12.524831041693686 18.702826991677284 36.92236639559269 14.477995783090593 17.066457152366642 278.94775797426701 19.193726912140846 17.923683032393456 10.116758793592451 14.204823821783064 33.536145254969597 24.494108930230141 18.962085694074634 16.672699615359306 14.435681521892546 11.865630537271498 16.535682916641235 26.902391746640205 14.005399093031881 15.745063856244085 62.448060527443886 35.636932626366615
leaf_count=252 231 151 148 334 264 190 258 117 51 76 151 59 69 1144 78 73 41 58 136 100 77 68 59 48 67 109 57 64 254 145
internal_value=0.000283164 -0.0133128 -0.0166232 0.0134433 0.00989473 0.00615775 -0.0197347 -0.00391824 0.0147234 0.00869845 -0.0227897 -0.0133174 -0.00797174 -0.0254165 0.00253732 0.0015028 0.0105169 -0.00647853 0.0121492 -0.013774 -0.00440694 -0.0124267 -0.00419032 0.0051123 0.006552 0.0104848 -0.00051423 0.00627406 0.0221851 0.0243632
internal_weight=1207.17 593.792 556.765 613.381 532.861 468.924 520.299 215.965 252.959 142.35 411.544 87.0687 108.755 315.87 128.896 45.1069 27.1832 58.4333 123.647 95.6737 66.6941 35.8664 38.9298 30.8277 76.9742 60.4385 44.2285 30.2231 110.61 98.085
internal_count=4929 2425 2274 2504 2170 1906 2126 878 1028 578 1685 355 441 1295 523 183 110 238 502 390 271 146 159 125 312 245 180 123 450 399
cat_boundaries=0 1
cat_threshold=12
is_linear=0
shrinkage=0.03


Tree=11
num_leaves=31
num_cat=1
split_feature=2 25 12 2 2 12 2 12 34 13 10 2 11 11 11 2 13 3 12 2 4 8 12 4 12 2 16 30 10 30
split_gain=446.43 146.096 87.5893 63.9129 45.7927 41.6143 19.7193 15.6919 9.36187 12.6995 11.432 8.49309 6.54025 6.7568 8.42542 6.30555 5.70414 9.8497 5.44393 5.77718 5.38382 6.29875 5.31311 7.12428 5.13917 9.89358 4.70543 4.32574 5.83724 4.16287
threshold=592.50000000000011 27.000000000000004 0.61150000000000004 743.50000000000011 679.50000000000011 0.85250000000000015 546.50000000000011 0.85250000000000015 0 1.0000000180025095e-35 0.30350000000000005 805.50000000000011 -249.99999999999997 16850.000000000004 22250.000000000004 499.50000000000006 1.5000000000000002 1.5000000000000002 0.56950000000000001 639.50000000000011 10950.000000000002 50750.000000000007 0.68450000000000022 20250.000000000004 0.74850000000000005 775.50000000000011 1.0000000180025095e-35 2550.0000000000005 0.17550000000000002 5550.0000000000009
decision_type=2 2 2 2 2 2 2 2 1 2 2 2 2 2 2 2 2 2 2 2 2 2 2 2 2 2 2 2 2 2
left_child=5 2 3 8 7 15 27 16 -2 -10 18 26 -9 -14 -15 -1 29 -18 19 -11 -8 -22 -17 -24 25 -6 -5 -7 -29 -4
right_child=1 -3 4 11 24 6 20 12 9 10 -12 -13 13 14 -16 22 17 -19 -20 -21 21 -23 23 -25 -26 -27 -28 28 -30 -31
leaf_value=0.036353082993482687 0.018009126921951918 0.033743671119473365 -0.014113427244285222 -9.385607817336858e-05 -0.014963719262775024 0.0078950871438687054 -0.021889007601391914 -0.0031189528092182466 -0.017943368302278058 0.020364343763748939 0.019364799404828027 -0.038232612595401227 -0.030346174904728154 0.0085591997395412112 -0.022786317849709442 0.030270812633868265 0.015522343489398939 -0.016879216270140752 -0.019550902209786843 -0.005829992885323175 -0.010595018515891549 0.016578699536589532 0.0088706257520397031 0.029371920678110067 -0.033437742624019856 -0.036850270241092296 -0.022710853454980508 0.037038509893514426 0.0076624463276733839 -0.00061535107535970804
leaf_weight=128.7525916993618 58.89991982281208 54.54912893474102 53.946855753660202 12.918327271938322 56.454648479819298 19.026523590087891 13.401795744895933 16.184335082769394 19.157760515809059 9.8865188509225863 38.776784837245941 26.874726593494415 56.608262106776237 10.813479304313661 19.135316103696823 127.43860138952732 23.615617766976357 10.6982534378767 10.69228559732437 19.210017547011375 17.403021380305294 10.703663676977156 36.337454915046692 27.967604890465736 211.94908429682255 30.285285905003548 21.13520759344101 17.79096715152264 10.621204227209089 32.812547981739044
leaf_count=533 237 226 217 52 231 77 54 66 77 40 156 112 231 44 78 526 95 43 43 77 70 43 147 114 881 126 86 72 43 132
internal_value=0.000279081 -0.012828 -0.0163424 -0.00033558 -0.0229804 0.0256546 0.00729707 -0.0125542 0.00981634 0.00255419 0.00819078 -0.0259149 -0.0210726 -0.0242833 -0.0116412 0.0306725 -0.00510059 0.00504705 -0.00310463 0.00380772 -0.00763288 0.000167234 0.0265221 0.0184041 -0.0306576 -0.0232637 -0.0146122 0.020141 0.0272831 -0.00913733
internal_weight=1204.05 794.604 740.055 217.552 522.504 409.443 88.9472 223.815 156.623 97.7234 78.5656 60.9283 102.741 86.5571 29.9488 320.496 121.073 34.3139 39.7888 29.0965 41.5085 28.1067 191.744 64.3051 298.689 86.7399 34.0535 47.4387 28.4122 86.7594
internal_count=4929 3250 3024 880 2144 1679 359 906 630 393 316 250 419 353 122 1320 487 138 160 117 167 113 787 261 1238 357 138 192 115 349
cat_boundaries=0 1
cat_threshold=3876
is_linear=0
shrinkage=0.03


Tree=12
num_leaves=31
num_cat=0
split_feature=2 26 2 12 12 2 2 26 12 2 12 12 2 9 16 30 4 0 29 4 2 13 29 2 21 9 12 2 27 12
split_gain=423.72 109.504 72.4373 53.7857 53.4871 41.9196 20.0857 16.7574 14.1841 13.7209 11.1922 11.0584 7.04697 6.33534 6.31373 10.3413 7.03493 6.11339 5.72718 5.45413 5.34171 5.29939 5.29223 5.25437 6.50213 4.92958 4.61026 4.41339 4.08679 3.94569
threshold=635.50000000000011 0.76050000000000006 546.50000000000011 0.85250000000000015 0.61950000000000005 751.50000000000011 680.50000000000011 0.58700000000000008 0.58450000000000013 592.50000000000011 0.75450000000000006 0.85450000000000015 805.50000000000011 16050.000000000002 210.50000000000003 1850.0000000000002 15850.000000000002 24.500000000000004 1.0783313325330133 4350.0000000000009 701.50000000000011 1.0000000180025095e-35 0.60041682048816514 456.50000000000006 73.350000000000009 89150.000000000015 0.50150000000000017 587.50000000000011 35350.000000000007 0.74850000000000005
decision_type=2 2 2 2 2 2 2 2 2 2 2 2 2 2 2 2 2 2 2 2 2 2 2 2 2 2 2 2 2 2
left_child=2 -2 10 7 5 13 11 -4 -9 19 -1 -6 -7 -3 15 -5 -17 -13 22 -10 21 -15 -11 -12 28 29 -23 -18 -25 -8
right_child=1 4 3 14 6 12 25 8 9 18 23 17 -14 20 -16 16 27 -19 -20 -21 -22 26 -24 24 -26 -27 -28 -29 -30 -31
leaf_value=0.034961988898708253 0.030487155825200535 -0.010875784976469516 0.037117925071482462 0.015353821335772734 -0.0069209478145330254 -0.014847982128681552 -0.023861669998839954 0.023116832918139322 0.0005239764058461181 0.0048114287871053249 0.032003177500913291 -0.0029313289011607289 -0.037627828983577381 -0.0051704404250695699 -0.02250830395124858 -0.022745700898133846 0.013433676330273118 -0.02937139137573011 0.01562994824630707 0.022815996001801536 -0.0014016065352156412 0.025589696608184585 -0.014315011005139393 0.028413284848967196 0.00076427077587625913 -0.0096499203327660345 0.0068698003238576817 -0.011007314500996979 0.0061443091588627829 -0.03355329633672402
leaf_weight=178.11430405080318 39.728303864598274 18.940130904316902 30.297502472996712 14.871736899018286 68.664937511086464 28.545076802372932 79.788400575518608 77.511600509285927 13.105333760380743 19.672230109572411 24.740239799022675 9.961694583296774 27.133273854851723 11.228113532066343 26.075825929641724 23.710826218128204 10.206847637891771 46.482906147837639 10.190102651715277 39.335602983832359 38.642171412706375 24.62531889975071 32.371019050478935 24.835435122251511 20.225315064191818 12.443106383085249 24.941571429371834 12.605138555169104 12.095961928367613 198.31469121575356
leaf_count=743 166 76 126 60 277 116 330 318 53 79 101 41 114 45 106 96 41 191 41 160 155 99 130 101 82 52 100 51 49 830
internal_value=0.000275179 -0.0166676 0.0189788 0.00909173 -0.0199367 -0.00588699 -0.0257637 0.0168863 0.0133474 0.00646082 0.0306056 -0.0153265 -0.0268689 0.00426424 -0.0106682 -0.00508791 -0.0119859 -0.0249651 -0.00307031 0.017469 0.00730558 0.0127084 -0.00717476 0.0205234 0.0146404 -0.0301224 0.0168018 0.000129755 0.02181 -0.030963
internal_weight=1199.4 629.44 569.965 309.954 589.711 174.056 415.656 222.483 192.186 114.674 260.011 125.11 55.6784 118.377 87.4704 61.3945 46.5228 56.4446 62.2334 52.4409 99.4372 60.795 52.0432 81.897 57.1567 290.546 49.5669 22.812 36.9314 278.103
internal_count=4929 2592 2337 1261 2426 705 1721 907 781 463 1076 509 230 475 354 248 188 232 250 213 399 244 209 333 232 1212 199 92 150 1160
is_linear=0
shrinkage=0.03


Tree=13
num_leaves=31
num_cat=2
split_feature=2 25 35 12 2 2 2 25 2 10 2 6 13 28 34 27 13 2 10 12 2 11 12 2 6 12 29 29 17 12
split_gain=401.022 106.838 69.4716 51.7804 42.5798 42.3696 19.4439 19.3835 13.6665 10.2596 8.04593 7.75853 7.26481 7.21218 7.08232 7.22228 7.01732 6.64967 6.51003 6.33748 10.1626 5.69673 5.45061 4.97014 4.95276 5.87085 4.66946 4.57599 4.17878 3.80589
threshold=635.50000000000011 42.500000000000007 0 0.61950000000000005 751.50000000000011 546.50000000000011 664.50000000000011 7.6000000000000005 586.50000000000011 0.25350000000000006 445.50000000000006 7.5000000000000009 1.5000000000000002 0.14810596473466633 1 20250.000000000004 1.0000000180025095e-35 805.50000000000011 0.31250000000000006 0.74550000000000016 775.50000000000011 4350.0000000000009 0.85250000000000015 684.50000000000011 96.500000000000014 0.75450000000000006 1.0127469777720008 0.68036306562425974 3.5000000000000004 0.58750000000000002
decision_type=2 2 1 2 2 2 2 2 2 2 2 2 2 2 1 2 2 2 2 2 2 2 2 2 2 2 2 2 2 2
left_child=2 3 8 4 14 10 11 9 -1 12 -4 27 13 -7 16 23 -2 -6 21 20 -8 -18 -15 -16 25 -12 -17 -5 -27 -10
right_child=1 -3 5 6 17 7 19 -9 29 -11 24 -13 -14 22 15 26 18 -19 -20 -21 -22 -23 -24 -25 -26 28 -28 -29 -30 -31
leaf_value=0.031727491433311737 -0.020689611049011656 0.032978341833902927 0.038524396693936508 -0.013215239816995529 -0.015004338740829319 -0.026639772406497161 -0.013487808916282562 0.027304951843270378 0.023138892392082291 0.0070298724185751376 0.028575070220634987 -0.020334360615951196 0.0063607366089481728 0.0052977838436769438 0.01239443317776559 0.031177315928856753 0.0090639870185456484 -0.037191919864853436 0.013269237557000898 -0.031037120244924356 -0.035191211200115396 -0.017534867558907742 -0.013937974582795078 -0.012461740731857799 0.033738429182594169 0.012923801167839897 0.0061582395771127233 0.0063649574466980918 -0.0059043047763152456 0.0099987290246754644
leaf_weight=240.03864389657974 13.43826103210449 35.597869828343391 20.095017462968826 16.541565045714378 28.723297119140625 30.095016226172447 65.326474845409393 14.163953393697737 46.806915014982224 32.719902977347374 11.863015681505201 41.452616035938263 15.839240655303 17.162501081824303 13.683624193072321 18.634919837117199 10.230843573808672 27.141374930739403 23.662160009145737 239.87494856119156 28.96013867855072 16.707613959908485 45.467657029628754 11.458234742283819 10.454169422388075 24.660841882228851 11.709959983825682 23.643715664744377 16.085830062627792 42.271963208913803
leaf_count=1005 54 150 83 67 117 122 268 58 192 132 49 169 64 69 55 75 41 115 95 1008 122 67 184 46 43 100 47 96 65 171
internal_value=0.000270595 -0.0162481 0.0185008 -0.0193134 -0.00556078 0.00514394 -0.0250601 -0.00391357 0.0271205 -0.00738072 0.0223734 -0.0115425 -0.0117725 -0.0149389 0.00459473 0.0111792 -0.00257854 -0.0266969 0.00234488 -0.0282742 -0.0207465 -0.00750473 -0.00866599 0.000982858 0.0162009 0.011608 0.0225003 -0.0019393 0.00556243 0.0172598
internal_weight=1194.51 626.788 567.725 591.19 175.39 238.607 415.799 155.448 329.118 141.284 83.1589 81.6379 108.564 92.7252 119.526 55.4867 64.0389 55.8647 50.6006 334.162 94.2866 26.9385 62.6302 25.1419 63.0639 52.6097 30.3449 40.1853 40.7467 89.0789
internal_count=4929 2592 2337 2442 712 969 1730 629 1368 571 340 332 439 375 480 223 257 232 203 1398 390 108 253 101 257 214 122 163 165 363
cat_boundaries=0 1 2
cat_threshold=12 218
is_linear=0
shrinkage=0.03


Tree=14
num_leaves=31
num_cat=1
split_feature=35 25 5 5 25 28 28 12 13 23 10 20 9 11 13 10 12 16 29 9 14 31 31 16 6 14 22 4 12 14
split_gain=200.089 76.0714 71.0197 51.9013 48.8892 37.4216 16.9186 12.1426 10.3903 10.1029 8.81272 8.5919 8.20135 7.56466 7.49311 7.41525 7.32134 6.97921 5.86011 5.80681 5.23385 5.15059 4.87367 4.47192 5.8928 4.39986 5.60623 4.14226 5.74036 4.82966
threshold=0 27.000000000000004 1.0000000180025095e-35 1.0000000180025095e-35 13.250000000000002 0.28929546981769316 0.63688813514232512 0.61150000000000004 1.5000000000000002 1.0000000180025095e-35 0.32650000000000007 1.0000000180025095e-35 92400.000000000015 9350.0000000000018 1.0000000180025095e-35 0.33850000000000008 0.75750000000000017 105.50000000000001 0.80741304027866379 44750.000000000007 36.500000000000007 0.88916634406275985 0.95399279529232783 277.50000000000006 9.5000000000000018 38.500000000000007 2.5000000000000004 27750.000000000004 0.58150000000000002 24.500000000000004
decision_type=1 2 2 2 2 2 2 2 2 2 2 2 2 2 2 2 2 2 2 2 2 2 2 2 2 2 2 2 2 2
left_child=3 2 6 4 5 7 12 17 9 15 11 13 16 -8 -9 -7 18 -1 -2 23 21 -19 -22 24 -16 27 -27 28 29 -10
right_child=1 -3 -4 -5 -6 8 10 14 25 -11 -12 -13 -14 -15 19 -17 -18 20 -20 -21 22 -23 -24 -25 -26 26 -28 -29 -30 -31
leaf_value=0.0093438614586349947 -0.020353638349793913 0.02866936481532582 0.024638767675999724 0.034972671507938397 0.033528776983429154 0.0059957103669907169 -0.012229676507800793 -0.024384100392070746 -0.00023461123263927061 -0.011899262896445722 0.017542691154657161 -0.026316926445111924 -3.4578113249844561e-05 0.0066768095774253858 0.014163473338054922 0.022187357789614531 -0.024017677999964102 -0.00096957450527211913 -0.0048744593985130258 -0.021115658006517813 -0.0049887183365951732 -0.023326607801007284 0.01812209790110967 -0.014896375759288025 -0.01127725009157393 0.035605564455599779 0.014900580343639636 0.024768948340891047 -0.01124525430143569 0.024604353360917323
leaf_weight=61.690894424915314 50.76796318590641 36.348284274339676 36.016161307692528 78.230653822422028 62.26524506509304 86.867498785257339 48.186892241239548 28.217552959918976 12.34167715907097 18.520781174302101 9.8030767589807493 20.726073160767555 16.416125267744064 29.069681704044342 21.917697876691818 35.475497588515282 297.37408664822578 19.005749210715294 40.540558531880379 14.016125395894049 18.794152691960338 16.456369236111641 11.766904711723326 11.147236630320547 10.682122409343718 28.323982074856758 27.267002433538437 17.172029107809067 9.7355864197015745 14.301167815923689
leaf_count=252 209 151 148 334 264 356 197 117 51 76 40 85 68 119 90 146 1241 78 167 58 77 68 48 46 44 117 112 71 40 59
internal_value=0.000267289 -0.0121114 -0.0151261 0.0122558 0.00898946 0.0055645 -0.0180033 -0.0036401 0.0133987 0.0078405 -0.00726275 -0.0100458 -0.0208114 -0.00512668 -0.01222 0.0109721 -0.0216842 0.00223551 -0.0137327 -0.00566066 -0.00448585 -0.0120359 0.00447618 -2.36009e-06 0.0056572 0.0203022 0.0263201 0.0133323 0.00692434 0.0138853
internal_weight=1189.44 585.249 548.901 604.196 525.965 463.7 512.884 213.695 250.005 140.864 107.786 97.9826 405.099 77.2566 85.9807 122.343 388.683 127.714 91.3085 57.7632 66.0232 35.4621 30.5611 43.7471 32.5998 109.141 55.591 53.5505 36.3784 26.6428
internal_count=4929 2425 2274 2504 2170 1906 2126 878 1028 578 441 401 1685 316 355 502 1617 523 376 238 271 146 125 180 134 450 229 221 150 110
cat_boundaries=0 1
cat_threshold=12
is_linear=0
shrinkage=0.03


Tree=15
num_leaves=31
num_cat=2
split_feature=2 25 12 12 2 2 2 2 2 25 1 10 13 29 28 1 10 13 4 36 34 27 14 12 15 10 10 11 30 6
split_gain=377.374 108.64 64.9323 43.0245 41.627 34.2391 18.7438 18.423 15.7167 9.68533 9.52723 8.3881 8.25364 7.51604 6.89424 7.61946 6.65943 6.41588 6.17272 5.74252 5.73351 5.36524 5.34331 4.89316 4.81626 4.7373 4.65973 4.4562 5.45862 4.42461
threshold=635.50000000000011 38.500000000000007 0.78450000000000009 0.6695000000000001 801.50000000000011 546.50000000000011 662.50000000000011 589.50000000000011 701.50000000000011 7.6000000000000005 25650.000000000004 0.26850000000000007 1.5000000000000002 0.65401241409886957 0.63688813514232512 34150.000000000007 0.13950000000000004 1.5000000000000002 19750.000000000004 0 1 19850.000000000004 45.500000000000007 0.58750000000000002 1.5000000000000002 0.30550000000000005 0.21850000000000003 3050.0000000000005 5250.0000000000009 12.500000000000002
decision_type=2 2 2 2 2 2 2 2 2 2 2 2 2 2 2 2 2 2 2 1 1 2 2 2 2 2 2 2 2 2
left_child=2 3 7 4 8 24 16 29 13 12 -9 18 14 23 27 -16 -5 21 -12 -13 -15 -10 26 -2 -4 -23 -18 -7 -29 -1
right_child=1 -3 5 6 -6 9 -8 10 17 -11 11 19 -14 20 15 -17 22 -19 -20 -21 -22 25 -24 -25 -26 -27 -28 28 -30 -31
leaf_value=0.025919812635068165 0.0034716625401159441 0.033627530702779032 0.025041221668407661 -0.023096808532961383 -0.037518889242604048 -0.0026171883348014148 -0.028403721801685898 0.026843571304208544 -0.027784317731456652 0.019147735878378726 -0.01159074258835889 0.0059527310526368005 0.011583545823478798 -0.00048025984595715163 -0.011013209383605978 0.019265378930750685 0.0015716018638708236 -0.0011542055841240971 0.012919035904677557 0.03113766412772315 0.018731620103750866 -0.016645289885576623 0.011530191218897444 -0.018008598696406794 0.007556725344646598 0.0052935363551415886 -0.020756643355423578 -0.034783729265205086 -0.013108905211079186 0.035483986874211122
leaf_weight=165.46411801874638 24.396902933716774 36.000924482941628 50.357280597090721 22.105371609330177 35.12141290307045 16.550697103142738 298.09079802036285 34.213798955082893 23.822593986988068 10.81085269153118 22.942648500204086 18.841697230935097 14.350738897919653 29.63822078704834 16.823504000902179 10.41879692673683 15.887308031320574 35.835514649748802 12.75157694518566 14.173789069056509 28.796324163675308 22.764800354838371 13.267922058701513 13.164150401949881 22.568544462323189 12.576638862490652 15.273637220263479 15.936620160937307 36.388241648674011 98.238919600844383
leaf_count=692 98 154 206 91 150 67 1262 140 97 44 93 77 58 119 68 42 65 145 52 58 116 93 54 53 92 51 62 65 148 423
internal_value=0.00025498 -0.0157189 0.0180986 -0.0188295 -0.00844394 0.00401473 -0.0251888 0.0254967 -0.00276405 -0.00575146 0.0143081 0.00748343 -0.00848535 0.0057425 -0.0116568 0.00109245 -0.0103765 -0.011301 -0.00261387 0.0179258 0.0123139 -0.0172081 -0.00332528 -0.00458643 0.0199764 -0.00897275 -0.00996446 -0.016588 -0.020748 0.0297231
internal_weight=1187.57 626.743 560.832 590.742 226.117 194.205 364.625 366.627 190.995 121.279 102.924 68.7097 110.469 95.9956 96.1179 27.2423 66.5342 94.9995 35.6942 33.0155 58.4345 59.164 44.4289 37.5611 72.9258 35.3414 31.1609 68.8756 52.3249 263.703
internal_count=4935 2610 2325 2456 922 790 1534 1535 772 492 420 280 448 386 390 110 272 386 145 135 235 241 181 151 298 144 127 280 213 1115
cat_boundaries=0 1 2
cat_threshold=2 2250
is_linear=0
shrinkage=0.03


Tree=16
num_leaves=31
num_cat=0
split_feature=2 25 12 12 2 2 2 2 2 24 1 12 13 0 29 4 13 12 12 29 27 28 27 1 15 10 12 8 21 29
split_gain=357.368 108.805 59.6934 42.9348 40.729 31.1189 19.1152 15.1821 15.0485 13.7694 8.72946 9.10786 8.28135 7.75788 7.73368 6.82426 6.71835 6.61036 6.17191 5.93673 5.78862 5.73948 5.28577 5.07721 4.57229 4.34976 4.17516 4.02338 3.97313 3.82213
threshold=631.50000000000011 38.500000000000007 0.78450000000000009 0.6695000000000001 799.50000000000011 546.50000000000011 662.50000000000011 701.50000000000011 523.50000000000011 1.0000000180025095e-35 27050.000000000004 0.58450000000000013 1.5000000000000002 22.500000000000004 0.67384076146375982 12650.000000000002 1.5000000000000002 0.79350000000000021 0.58750000000000002 0.97514258555133082 19850.000000000004 0.63688813514232512 20550.000000000004 27050.000000000004 1.5000000000000002 0.30550000000000005 0.45150000000000007 33450.000000000007 72.850000000000009 1.0485402494331069
decision_type=2 2 2 2 2 2 2 2 2 2 2 2 2 2 2 2 2 2 2 2 2 2 2 2 2 2 2 2 2 2
left_child=2 3 8 4 7 24 13 14 -1 10 -10 19 21 -5 18 28 20 -15 23 26 -9 29 -23 -2 -4 -22 -12 -26 -13 -7
right_child=1 -3 5 6 -6 12 -8 16 9 -11 11 15 -14 17 -16 -17 -18 -19 -20 -21 25 22 -24 -25 27 -27 -28 -29 -30 -31
leaf_value=0.033091626728666196 -0.0098705729162174034 0.033603836519884092 0.024404540700293593 0.011844955091127899 -0.036354611928390825 -0.015986376589462364 -0.027743774048008363 -0.028015620737358346 0.024646651119715098 0.038836807176600111 0.012534137052453339 0.0010772291030617886 0.01412813064034432 0.0018552180318825641 0.012151744818480709 0.012004413604464722 -0.00049432305487711714 -0.019814402963004962 -0.01890721420335819 0.002097599062505966 -0.015900105519599198 -0.0090260108332840469 0.014878713013504886 0.014833730399026576 -0.0064226501004812087 0.0051546235895970722 0.033753804050007177 0.017400992975012651 -0.021234477045176572 0.0030073097336847953
leaf_weight=141.24491286277771 11.457330852746965 37.335897371172905 50.175834149122238 10.554895326495169 35.749580010771751 59.407970950007439 296.10394091904163 23.495705917477608 72.8971097022295 29.117281794548035 18.377307713031769 17.254701077938083 15.081642419099806 16.641527608036995 61.885701224207878 30.034466102719307 35.353796377778053 47.100691273808479 14.393980279564856 13.68354097008705 22.479402005672455 15.585750952363016 13.880989223718641 15.161508768796919 9.8116750568151492 12.581917867064474 22.038191989064217 12.735143184661863 10.088718593120573 10.609734341502188
leaf_count=606 46 161 206 43 154 242 1262 96 304 125 77 70 61 67 249 123 143 194 58 57 92 63 56 61 40 51 92 52 41 43
internal_value=0.000255482 -0.0148987 0.0181461 -0.0180032 -0.00780648 0.00437951 -0.024329 -0.00230727 0.0253491 0.0199672 0.0166024 0.0110004 -0.00536072 -0.0103491 0.00560633 0.0025026 -0.0109143 -0.0142727 -0.00437606 0.0196027 -0.0169813 -0.0085354 0.00246481 0.00425376 0.0194569 -0.00847409 0.025151 0.00735508 -0.00804119 -0.0131047
internal_weight=1182.32 640.296 542.025 602.96 232.559 187.289 370.401 196.809 354.736 213.491 184.374 111.477 114.566 74.2971 102.899 57.3779 93.9108 63.7422 41.0128 54.099 58.557 99.4844 29.4667 26.6188 72.7227 35.0613 40.4155 22.5468 27.3434 70.0177
internal_count=4935 2677 2258 2516 950 763 1566 796 1495 889 764 460 465 304 414 234 382 261 165 226 239 404 119 107 298 143 169 92 111 285
is_linear=0
shrinkage=0.03


Tree=17
num_leaves=31
num_cat=2
split_feature=35 26 5 5 25 28 28 12 12 11 9 23 21 0 0 1 6 30 21 34 1 29 16 14 27 29 12 11 27 28
split_gain=156.318 72.2862 58.6085 52.1302 52.0205 26.9338 17.9576 16.1927 10.2393 8.0887 8.07365 7.19124 6.38189 6.18855 8.87799 9.45776 7.36364 5.80573 8.08237 5.69915 5.41297 8.60705 5.36824 7.2802 5.77968 5.34769 5.29204 5.13232 4.99197 4.60258
threshold=0 0.72900000000000009 1.0000000180025095e-35 1.0000000180025095e-35 23.000000000000004 0.47380866609397665 0.63688813514232512 0.59550000000000003 0.75750000000000017 8750.0000000000018 51650.000000000007 1.0000000180025095e-35 69.250000000000014 22.500000000000004 36.500000000000007 22250.000000000004 9.5000000000000018 -1849.9999999999998 63.850000000000001 1 49350.000000000007 0.78386720053386727 305.50000000000006 45.500000000000007 28550.000000000004 0.82482227488151671 0.94950000000000012 20650.000000000004 33950.000000000007 0.79416379986722208
decision_type=1 2 2 2 2 2 2 2 2 2 2 2 2 2 2 2 2 2 2 1 2 2 2 2 2 2 2 2 2 2
left_child=3 -2 6 4 5 7 8 12 10 29 -3 -7 19 -9 15 -15 -16 18 -10 -1 21 -21 23 24 -14 -17 27 -11 -12 -8
right_child=1 2 -4 -5 -6 11 9 13 17 26 28 -13 22 14 16 25 -18 -19 -20 20 -22 -23 -24 -25 -26 -27 -28 -29 -30 -31
leaf_value=-0.0031781302133214143 0.028518081282793505 -0.016578362346448359 0.023425723104458774 0.033668140597939926 0.034112721164781083 0.014217579242652916 0.0043762715637582581 0.0077731748010194971 0.0044664301973793424 0.020515175024049918 -0.013097255904850193 -0.0043750046162591531 -0.024208004798230445 0.0045149962148652899 0.006230418794580206 -0.033500343235717253 -0.018846136721750919 -0.023651308674322656 -0.021056815903190133 0.030646296296626942 -0.0033709760685647558 0.0046640766317067464 0.01004772595424345 0.011123245131001994 0.00088617780992332397 -0.011672025989623021 -0.010682925599428832 -0.0032887011647660977 0.0098515355025887517 -0.015787206873278746
leaf_weight=24.767832890152931 37.148313254117966 60.866623163223267 33.957797452807426 77.789147138595581 57.009650528430939 182.12752433121204 11.671986803412436 13.524504289031027 17.545994028449059 18.113812774419788 11.370821833610533 19.932060942053795 20.569522872567177 10.810546740889547 29.209076374769211 29.50638136267662 13.950906336307524 262.09697394073009 26.086249858140945 26.959543958306313 10.134789079427717 20.383888512849808 19.116376280784607 11.434724420309065 12.812657818198202 19.430168986320496 12.752390831708906 12.88989035785198 21.642463222146034 51.251517802476883
leaf_count=102 157 253 141 341 248 757 48 56 73 74 47 82 85 45 121 123 58 1110 110 111 42 84 79 47 53 81 53 53 90 211
internal_value=0.000254218 -0.0107751 -0.0137709 0.0108762 0.00756975 0.004181 -0.0163481 -0.00215692 -0.0192595 -0.00528884 -0.0102673 0.0123586 0.00447105 -0.0104133 -0.012906 -0.0202077 -0.00235092 -0.021936 -0.0110471 0.00990128 0.0136877 0.020102 -0.00260304 -0.00819787 -0.0150708 -0.025632 0.00450369 0.0110191 0.00165062 -0.0120274
internal_weight=1176.86 577.395 540.247 599.469 521.68 464.671 506.289 262.611 399.609 106.68 93.8799 202.06 146.179 116.432 102.907 59.7471 43.16 305.729 43.6322 82.2461 57.4782 47.3434 63.9333 44.8169 33.3822 48.9366 43.7561 31.0037 33.0133 62.9235
internal_count=4935 2420 2263 2515 2174 1926 2122 1087 1683 439 390 839 603 484 428 249 179 1293 183 339 237 195 264 185 138 204 180 127 137 259
cat_boundaries=0 1 2
cat_threshold=12 832
is_linear=0
shrinkage=0.03


Tree=18
num_leaves=31
num_cat=0
split_feature=2 12 26 2 12 2 2 26 24 12 12 13 13 16 29 3 14 12 10 12 27 2 31 16 4 31 6 6 10 2
split_gain=331.206 78.4759 69.8447 40.9606 30.0645 30.3345 26.1893 14.9871 14.6371 10.8456 10.5787 8.65048 7.89133 8.14258 7.2375 7.18712 6.70789 6.2331 5.22518 5.46199 5.13746 4.83259 4.73914 4.72634 4.81097 4.46954 4.4116 4.31347 4.30842 4.12435
threshold=662.50000000000011 0.76850000000000007 0.75750000000000017 546.50000000000011 0.6695000000000001 797.50000000000011 592.50000000000011 0.57650000000000012 1.0000000180025095e-35 0.36950000000000005 0.51550000000000018 1.5000000000000002 1.0000000180025095e-35 196.50000000000003 1.1057617071724957 2.5000000000000004 50.500000000000007 0.44850000000000007 0.30050000000000004 0.61150000000000004 19850.000000000004 523.50000000000011 0.80382181110029227 96.500000000000014 10450.000000000002 0.69187320332530511 10.500000000000002 3.5000000000000004 0.18450000000000003 641.50000000000011
decision_type=2 2 2 2 2 2 2 2 2 2 2 2 2 2 2 2 2 2 2 2 2 2 2 2 2 2 2 2 2 2
left_child=1 6 -2 25 5 9 21 -5 10 -4 29 20 15 22 18 16 -9 -13 -12 -20 -11 -1 -14 -19 -25 -3 28 -27 -24 -8
right_child=2 3 4 7 -6 -7 8 12 -10 11 14 17 13 -15 -16 -17 -18 23 19 -21 -22 -23 26 24 -26 27 -28 -29 -30 -31
leaf_value=0.032383284580926999 0.026199069417018266 0.00017316356835124611 0.018109613117170121 0.024606104821409756 -0.026844286086354124 -0.033916700167606506 0.026264407467393468 -0.021559377542167465 0.03791617882360665 -0.022339467447684874 -0.0057043579823730355 -0.01710414204095528 -0.006474326882430873 -0.014534156664041785 0.022051914355840582 0.0058288101157942538 -0.001166575130538558 0.018166010349366081 0.024030592541933141 -0.0021344376794843827 -0.0066683405055752961 0.022830919885078283 0.015495066505089264 0.010676876396302208 -0.014774240569907521 0.0065722907966730181 0.027296818951276849 0.02586981075885926 -0.0093068112368880108 0.0042540093755984842
leaf_weight=135.36633171141148 28.529421985149384 9.7481979131698591 14.874180987477301 11.069090232253073 291.04645520448685 39.180205300450325 30.761522024869919 67.876922145485878 15.773391276597975 32.875271454453468 55.549926042556763 9.9162227809429151 16.675039246678352 24.853524908423424 13.119617298245428 13.017364546656607 18.623179748654366 17.856660738587379 11.320355862379076 14.93541346490383 46.495988801121712 120.76586554944515 11.370363458991056 11.887469649314882 10.918740376830099 14.953530982136725 9.8673803210258466 52.463154435157776 10.10179267823696 11.146686524152754
leaf_count=590 125 40 60 46 1255 170 127 279 69 134 224 40 68 102 53 53 76 72 46 60 189 515 46 48 44 61 40 217 41 45
internal_value=0.000249186 0.0140593 -0.0180902 0.00117374 -0.0208487 -0.0111787 0.0222297 -0.00654695 0.0121558 -0.00464901 0.00868283 -0.00748898 -0.00880659 -0.00123837 0.0029825 -0.0142146 -0.0172945 0.00217405 -0.000529044 0.0100492 -0.0135488 0.0280912 0.00594985 0.00745675 -0.0017169 0.0192309 0.0125523 0.0219022 0.00402799 0.0208705
internal_weight=1172.94 669.359 503.581 260.62 475.051 184.005 408.739 183.455 152.607 144.825 136.834 129.95 172.386 72.8681 94.9253 99.5175 86.5001 50.5791 81.8057 26.2558 79.3713 256.132 48.0146 40.6629 22.8062 77.1649 31.3395 67.4167 21.4722 41.9082
internal_count=4935 2798 2137 1069 2012 757 1729 751 624 587 555 527 705 297 383 408 355 204 330 106 323 1105 195 164 92 318 127 278 87 172
is_linear=0
shrinkage=0.03


Tree=19
num_leaves=31
num_cat=3
split_feature=2 35 26 2 26 2 35 2 10 2 29 8 34 2 10 10 10 10 28 27 10 13 2 6 28 10 0 13 1 31
split_gain=313.764 78.8358 66.2838 45.8804 25.4754 22.2036 20.633 16.486 13.3892 14.0808 10.1796 8.70875 7.44908 10.4309 7.24484 6.75603 6.27427 5.30692 5.2643 5.60918 4.66721 4.61449 5.2381 4.49436 4.41565 7.14861 4.10831 3.75204 6.41969 4.39663
threshold=662.50000000000011 0 0.75750000000000017 546.50000000000011 0.57650000000000012 799.50000000000011 1 586.50000000000011 0.44550000000000006 704.50000000000011 0.67814334023062728 34250.000000000007 2 600.50000000000011 0.16250000000000003 0.11050000000000001 0.26850000000000007 0.25350000000000006 0.64174397031539898 41900.000000000007 0.19050000000000003 1.5000000000000002 779.50000000000011 4.5000000000000009 0.19508844813722867 0.15850000000000003 28.500000000000004 1.0000000180025095e-35 57450.000000000007 1.0855124808826744
decision_type=2 1 2 2 2 2 1 2 2 2 2 2 1 2 2 2 2 2 2 2 2 2 2 2 2 2 2 2 2 2
left_child=1 7 -2 -3 -5 6 8 -1 9 10 11 -4 14 17 18 -9 -15 24 19 -6 -16 22 -11 -12 -14 -26 -23 29 -29 -8
right_child=2 3 5 4 12 -7 27 15 -10 21 23 -13 13 16 20 -17 -18 -19 -20 -21 -22 26 -24 -25 25 -27 -28 28 -30 -31
leaf_value=0.028299303132688393 0.025648435730916491 0.020586569210528111 -0.027910390446649176 0.030398105438968204 -0.027727196106100426 -0.034434672114249811 -0.031086707947775395 -0.0049375745760017898 0.017261801066456885 -0.026599076082042351 -0.003382664796302769 0.0035945826211112538 -0.020669068343569609 -0.02516034774481957 0.02257895739713962 0.01693042544907002 -0.0024474512286873241 0.015283431524168346 0.0056542559775596734 -3.1483654915123011e-05 0.0014367278936551421 0.0060378725119026875 -0.0019340232523915807 0.018313796720063644 0.015784447842624224 -0.015881583590070834 -0.015599314009643924 -0.024190251178402469 -0.0082853127433218567 -0.0074581282430519402
leaf_weight=229.31733518838882 28.313869014382362 82.561877861618996 14.004079878330232 14.596569806337355 15.740140706300737 83.071935951709747 87.440258383750916 13.255239740014074 15.33028022944927 50.657435074448586 12.408568635582922 14.792220130562781 12.520543709397314 56.744228914380074 10.559724971652029 124.80018250644207 14.018933549523352 9.8584275692701322 11.781572476029394 10.470284461975096 38.554768651723862 11.031604632735254 9.4715886712074262 22.442858979105949 11.377808272838594 10.332503408193586 19.775281742215157 88.342472448945045 34.375309735536575 9.3123439997434598
leaf_count=999 125 343 57 62 65 366 381 54 62 210 50 60 51 234 43 514 57 40 48 43 157 45 40 91 46 42 81 381 148 40
internal_value=0.00025147 0.0137169 -0.0176533 0.00177433 -0.00543942 -0.0203455 -0.0171791 0.0227153 -0.00754251 -0.0106731 0.000191676 -0.0125443 -0.00830225 -0.0127772 -0.000731544 0.0147903 -0.0208516 -0.00224753 -0.0103609 -0.0174502 0.00668796 -0.0181181 -0.0229011 0.0108246 -0.00786138 0.000645358 -0.00795553 -0.0231198 -0.0199393 -0.0290096
internal_weight=1167.26 666.49 500.77 299.117 216.556 472.456 389.384 367.373 169.914 154.584 63.6477 28.7963 201.959 114.852 87.1065 138.055 70.7632 44.0893 37.992 26.2104 49.1145 90.9359 60.129 34.8514 34.2309 21.7103 30.8069 219.47 122.718 96.7526
internal_count=4935 2798 2137 1231 888 2012 1646 1567 696 634 258 117 826 470 356 568 291 179 156 108 200 376 250 141 139 88 126 950 529 421
cat_boundaries=0 1 2 3
cat_threshold=12 12 342
is_linear=0
shrinkage=0.03


Tree=20
num_leaves=31
num_cat=1
split_feature=2 25 2 12 12 12 2 2 10 12 27 6 34 31 1 14 4 2 12 29 2 20 11 8 13 14 12 16 8 11
split_gain=309.067 97.5272 55.641 33.4744 32.3832 27.7017 27.7258 17.3217 9.49077 9.03181 6.10095 6.08151 5.72164 8.44066 6.08459 5.61233 11.3251 5.51335 4.962 4.8303 4.77167 4.76815 4.49593 4.47261 4.42642 5.60199 5.16076 4.53176 4.34534 4.22119
threshold=597.50000000000011 27.000000000000004 662.50000000000011 0.85250000000000015 0.76450000000000007 0.6715000000000001 751.50000000000011 546.50000000000011 0.25250000000000006 0.51550000000000018 17550.000000000004 3.5000000000000004 0 0.86310294052028036 27250.000000000004 30.500000000000004 3950.0000000000005 589.50000000000011 0.59250000000000014 0.73675830889540583 799.50000000000011 1.0000000180025095e-35 5550.0000000000009 53950.000000000007 2.5000000000000004 33.500000000000007 0.58750000000000002 182.50000000000003 43950.000000000007 15450.000000000002
decision_type=2 2 2 2 2 2 2 2 2 2 2 2 1 2 2 2 2 2 2 2 2 2 2 2 2 2 2 2 2 2
left_child=3 2 4 17 8 6 10 -5 9 -2 18 -9 13 -6 -14 16 -12 -1 22 -11 28 -3 -4 -17 25 26 -10 -27 -8 -13
right_child=1 21 5 7 12 -7 20 11 24 19 15 29 14 -15 -16 23 -18 -19 -20 -21 -22 -23 -24 -25 -26 27 -28 -29 -30 -31
leaf_value=0.025910358823151115 0.018901489853318489 0.031715476536987232 -0.013196193001727485 0.016370991347384456 -0.011786655424381962 -0.02644051447608449 -0.023771978341677453 -0.026588880370727101 0.013197576566266899 -0.018001979048322733 0.011457010872319788 0.006100605050690956 -0.0033709871615144171 0.020401964930307506 -0.02283447925377291 0.015626012203358231 -0.025282860361462559 0.0099782297235709357 -0.026809200707111444 0.0018155368416969619 -0.033425762480758826 0.0064243222152028092 0.010995153946039898 -0.0038131496096789641 0.029586485823928709 0.026532448440738363 -0.01337404938392347 0.0038823552630423189 -0.0028852359974287463 -0.01391160155911975
leaf_weight=297.12064757943153 12.465857237577437 41.590932548046112 14.614095374941828 50.322392269968987 16.184417158365253 291.48177225887775 24.637562483549118 10.542029231786726 10.281499654054643 20.82360927760601 13.372402325272562 21.404650002717972 19.08076611161232 10.293479949235914 69.551844030618668 31.678580939769745 13.124155133962629 24.5093082934618 10.581611067056654 20.846963584423065 35.038625776767731 9.3223625570535642 9.9452232718467695 14.600917324423788 13.321951016783713 19.636651396751404 12.181845486164091 13.81258802115917 14.437435954809187 14.012641742825506
leaf_count=1289 51 184 59 208 67 1275 102 43 42 84 54 87 78 42 288 128 53 102 43 84 156 41 40 59 55 80 49 56 60 57
internal_value=-0.000538554 -0.0118903 -0.0147763 0.0201422 -0.00292411 -0.0207082 -0.0113416 0.00450859 0.00769906 -0.00170948 -0.00153303 -0.008621 -0.0142467 0.000948017 -0.0169419 0.00343292 -0.00723807 0.0247654 -0.0114485 -0.00845857 -0.0252083 0.0275025 -0.00330969 0.00958917 0.0148973 0.0104965 -0.00112751 0.017926 -0.016571 -0.00213749
internal_weight=1180.82 762.907 711.994 417.912 238.481 473.512 182.031 96.2817 123.371 54.1364 107.917 45.9593 115.111 26.4779 88.6326 72.7761 26.4966 321.63 35.1409 41.6706 74.1136 50.9133 24.5593 46.2795 69.2345 55.9126 22.4633 33.4492 39.075 35.4173
internal_count=5016 3230 3005 1786 976 2029 754 395 501 219 436 187 475 109 366 294 107 1391 142 168 318 225 99 187 282 227 91 136 162 144
cat_boundaries=0 1
cat_threshold=772
is_linear=0
shrinkage=0.03


Tree=21
num_leaves=31
num_cat=1
split_feature=2 25 2 10 2 2 13 13 6 34 11 29 10 13 28 25 14 6 9 10 14 10 14 21 4 20 27 1 0 6
split_gain=292.474 92.5474 53.0399 25.6512 19.7191 17.3897 15.0042 14.2867 12.1348 9.95879 8.65741 7.08712 6.72859 6.18237 5.93447 5.17675 5.09675 4.97369 4.6255 7.4789 4.6189 4.70964 4.60225 5.51965 5.25716 4.58168 4.56639 4.19861 4.12357 4.05855
threshold=597.50000000000011 27.000000000000004 662.50000000000011 0.23450000000000001 751.50000000000011 514.50000000000011 1.5000000000000002 1.0000000180025095e-35 13.500000000000002 0 4250.0000000000009 1.1453079178885635 0.29250000000000004 2.5000000000000004 0.19508844813722867 50.500000000000007 43.500000000000007 32.500000000000007 53350.000000000007 0.31050000000000005 32.500000000000007 0.19150000000000003 33.500000000000007 79.050000000000011 22050.000000000004 1.0000000180025095e-35 25550.000000000004 36950.000000000007 37.500000000000007 8.5000000000000018
decision_type=2 2 2 2 2 2 2 2 2 1 2 2 2 2 2 2 2 2 2 2 2 2 2 2 2 2 2 2 2 2
left_child=5 2 3 9 6 -1 11 8 12 10 -2 -4 14 22 -7 16 17 28 -6 -20 -11 -22 -5 24 -24 -3 29 -16 -9 -12
right_child=1 25 4 13 18 7 -8 15 -10 20 26 -13 -14 -15 27 -17 -18 -19 19 -21 21 -23 23 -25 -26 -27 -28 -29 -30 -31
leaf_value=0.026720595759025807 0.016954137203893136 0.031101148654123115 -0.021032797623322091 -0.0034643992844591597 -0.031111309360860026 -0.02084652341699348 -0.0041541937046679226 0.01289957268571609 0.024039751491463774 -0.0090742984076718457 -0.0096152478772113092 -0.00068735871879515708 0.017077188211155753 0.024622826525062272 -0.010193904962334721 0.034750305321532809 0.02525104860391356 0.026887158652401918 -0.02446557823923369 0.0042574189413657135 -0.017635769302571585 -0.040386790564870094 0.022701348697303021 -0.0059241463825841249 -0.0018640092718684314 0.0062756102854294683 -0.01518038543159563 0.0097289202117554589 -0.0025085095534947187 0.01452055378855701
leaf_weight=179.48628322780132 16.208904519677162 41.185751706361771 194.32658913731575 33.099984064698219 133.54515931010246 17.060466721653938 81.214801415801048 57.7195875197649 17.829316437244415 28.093261793255806 10.275963932275774 16.870934128761292 10.471495524048803 16.188404425978661 16.519908770918846 17.283258602023125 45.124909818172455 16.161251947283745 34.990691930055618 9.7810623198747617 34.027971312403679 12.94898149371147 27.268234997987747 12.46366600692272 10.317276626825331 9.3046398013830167 26.182280197739601 17.591098204255104 20.391482800245285 10.937068000435827
leaf_count=787 66 184 834 135 588 70 337 243 76 116 42 71 44 67 68 77 192 71 156 43 140 53 111 51 42 41 108 72 86 45
internal_value=-0.000526026 -0.0115933 -0.0144064 -0.00283089 -0.0202225 0.0196488 -0.0152438 0.0140947 0.00361025 -0.0111 -0.000651877 -0.0194293 -0.00286844 0.00870392 -0.00743885 0.0193001 0.01692 0.0124905 -0.0281273 -0.0182769 -0.0173676 -0.0253001 0.00509909 0.0106781 0.0162046 0.0269396 -0.00724767 5.01244e-05 0.00891497 0.00300766
internal_weight=1174.87 759.232 708.741 238.012 470.729 415.639 292.412 236.153 79.4723 138.674 63.6042 211.198 61.643 99.3376 51.1715 156.68 139.397 94.2723 178.317 44.7718 75.0702 46.977 83.1492 50.0492 37.5855 50.4904 47.3953 34.111 78.1111 21.213
internal_count=5016 3230 3005 976 2029 1786 1242 999 330 570 261 905 254 406 210 669 592 400 787 199 309 193 339 204 153 225 195 140 329 87
cat_boundaries=0 1
cat_threshold=2900
is_linear=0
shrinkage=0.03


Tree=22
num_leaves=31
num_cat=1
split_feature=2 25 2 35 12 12 2 2 10 4 2 21 1 21 6 27 27 25 0 29 10 6 12 27 12 8 2 10 14 21
split_gain=277.057 87.8468 51.0121 46.73 31.5518 19.4056 18.9803 15.8632 8.14908 7.2031 8.32132 7.02491 11.2657 7.49362 5.70234 5.58276 7.58331 5.35866 4.9863 5.71257 4.92519 4.55258 4.51361 4.46147 4.43764 4.29518 4.56893 4.2281 5.99298 4.11801
threshold=597.50000000000011 34.500000000000007 680.50000000000011 0 0.85250000000000015 0.60050000000000014 807.50000000000011 546.50000000000011 0.23350000000000004 3950.0000000000005 773.50000000000011 77.450000000000017 22850.000000000004 91.250000000000014 3.5000000000000004 25150.000000000004 30850.000000000004 3.6000000000000005 32.500000000000007 0.75060386473429963 0.33250000000000007 11.500000000000002 0.61950000000000005 27650.000000000004 0.79350000000000021 84250.000000000015 760.50000000000011 0.17550000000000002 30.500000000000004 80.15000000000002
decision_type=2 2 2 1 2 2 2 2 2 2 2 2 2 2 2 2 2 2 2 2 2 2 2 2 2 2 2 2 2 2
left_child=4 2 3 11 15 6 9 27 17 10 -4 21 -13 -14 -9 -1 20 -5 19 -10 23 22 -2 -17 -3 26 -7 28 -6 -16
right_child=1 24 5 8 7 25 -8 14 18 -11 -12 12 13 -15 29 16 -18 -19 -20 -21 -22 -23 -24 -25 -26 -27 -28 -29 -30 -31
leaf_value=0.026972577068918976 0.015568646737635349 0.031666856164511745 0.010649540730145257 -0.021616389661178171 0.0017842000958575113 -0.022735662926650808 -0.034484673937111701 -0.025989641513814544 0.019652359654646286 -0.012670161360936773 -0.017075143980754479 -0.022608788721454453 -0.0054181465900106623 0.022476163233147151 0.0050546000334859269 0.010919829829302124 0.0228987420191386 -0.00039430126022074166 -0.013803643457808391 -0.0080834156985787869 0.020841585849994893 0.027224163078701069 0.00084267587137640059 -0.012604141087933897 0.0080678411572217071 -0.013265332350950355 -0.032231070725724842 0.0038100029562947871 0.030317354953590812 -0.015245022118785716
leaf_weight=198.05181296169758 45.711134731769562 37.867808982729912 37.515518933534622 110.77630198001862 9.6644641607999819 162.12955981492996 21.087857365608215 10.502304539084433 10.49002054333687 42.349885925650597 11.000126436352728 13.091665998101233 16.208408504724506 15.211778432130812 23.402339145541191 11.790462434291841 83.012407287955284 11.914770200848578 23.851140528917313 12.662489056587217 11.372709617018698 15.865603148937224 31.237107396125793 13.350835174322127 10.788275569677351 31.13128761947155 95.153698801994324 19.258046239614487 21.051449656486511 11.980795070528982
leaf_count=873 187 173 152 464 40 711 96 43 43 172 46 53 66 62 95 51 359 50 98 52 51 65 126 57 46 138 430 80 88 49
internal_value=-0.000508488 -0.0112989 -0.013999 -0.00475383 0.0191831 -0.0210298 -0.0101731 0.00399547 -0.0147126 -0.00390971 0.00393627 0.0080641 -0.00113961 0.0086235 -0.0085552 0.0237138 0.017959 -0.0195949 -0.00469158 0.00504663 0.00612281 0.0132595 0.00976343 -0.00158042 0.0269595 -0.025145 -0.026469 0.0154051 0.0219976 -0.00226677
internal_weight=1169.48 756.044 707.388 307.02 413.438 400.368 111.953 95.8594 169.695 90.8655 48.5156 137.326 44.5119 31.4202 45.8854 317.578 119.526 122.691 47.0037 23.1525 36.514 92.8138 76.9482 25.1413 48.6561 288.415 257.283 49.974 30.7159 35.3831
internal_count=5016 3230 3011 1266 1786 1745 466 395 707 370 198 559 181 128 187 1391 518 514 193 95 159 378 313 108 219 1279 1141 208 128 144
cat_boundaries=0 1
cat_threshold=12
is_linear=0
shrinkage=0.03


Tree=23
num_leaves=31
num_cat=1
split_feature=2 12 25 12 2 2 2 25 12 2 25 16 30 2 10 34 0 4 12 10 6 15 16 1 2 9 2 4 29 13
split_gain=262.613 60.8348 56.5509 32.194 30.7913 26.2664 18.7608 12.2131 10.9967 9.05809 8.10123 8.06553 10.1849 6.94996 7.88315 6.70269 6.83389 7.9045 6.69142 6.98618 6.35969 6.49021 6.16129 5.82772 5.05877 5.01909 4.78778 4.60112 5.10609 4.43757
threshold=646.50000000000011 0.76850000000000007 42.500000000000007 0.6695000000000001 751.50000000000011 546.50000000000011 589.50000000000011 7.6000000000000005 0.86350000000000005 599.50000000000011 50.500000000000007 210.50000000000003 1950.0000000000002 662.50000000000011 0.15450000000000003 0 32.500000000000007 16850.000000000004 0.51550000000000018 0.26850000000000007 94.500000000000014 1.5000000000000002 152.50000000000003 25650.000000000004 799.50000000000011 29350.000000000004 509.50000000000006 13250.000000000002 0.79295496323529424 1.5000000000000002
decision_type=2 2 2 2 2 2 2 2 2 2 2 2 2 2 2 1 2 2 2 2 2 2 2 2 2 2 2 2 2 2
left_child=1 6 3 4 15 20 -1 8 9 -7 18 12 -10 14 -5 25 27 -18 -8 23 21 26 -16 -20 29 -2 -3 28 -17 -6
right_child=2 5 -4 13 24 7 10 -9 11 -11 -12 -13 -14 -15 22 16 17 -19 19 -21 -22 -23 -24 -25 -26 -27 -28 -29 -30 -31
leaf_value=0.025691453149113062 -0.016307544247893734 0.023772105645646906 0.024668243053957015 -0.026236311861071945 -0.022412237393932992 0.01493402119780712 0.018546077878717419 0.019515409951417671 0.012482483125551018 -0.0086925427391956588 0.032154550669006687 -0.027495644779264476 -0.014904886880868003 -0.024874257736982357 0.013388702583750226 -0.0066896756980923018 0.0088951380949434788 -0.017416018375703717 0.0098738975892650686 0.012658257559638345 0.032271412997214123 -0.0032758328074490545 -0.014874392939513665 -0.013068737991041794 -0.031977105161568674 0.00095029723565531548 0.002865476902938808 0.027436800368804012 0.019937187115268335 -0.0016455147006550687
leaf_weight=244.85787390172482 27.629443019628525 28.550318747758865 28.657410725951195 14.949010238051413 23.590828120708466 24.996986851096153 33.793007597327232 13.821179851889609 14.697499439120291 29.895032241940498 12.496990904211996 28.234275162220001 46.026807099580765 288.56053096055984 13.13792957365513 12.290623009204866 22.763153553009033 15.602635651826857 13.261131301522253 32.33256022632122 14.531384512782095 20.100177377462387 10.823067814111708 27.647662699222565 33.982355684041977 30.646996811032295 15.452030271291731 14.992957219481466 10.182037740945814 15.042279452085493
leaf_count=1096 112 120 132 63 100 101 142 58 60 122 57 118 190 1289 54 50 92 63 54 132 63 83 45 112 156 124 64 61 41 62
internal_value=-0.000495791 0.0132791 -0.0151918 -0.0174142 -0.00803528 0.00139867 0.0209338 -0.00566185 -0.00831532 0.0022134 0.0109254 -0.0147179 -0.00808949 -0.0232501 -0.0105778 0.000551423 0.00600255 -0.00213785 0.00790246 0.00262914 0.0153453 0.010648 0.000459993 -0.005518 -0.0234831 -0.00643401 0.0168742 0.0155454 0.00601798 -0.0148054
internal_weight=1163.55 600.695 562.851 534.194 206.723 236.306 364.389 157.672 143.851 54.892 119.531 88.9586 60.7243 327.471 38.91 134.108 75.8314 38.3658 107.034 73.2414 78.6339 64.1025 23.961 40.9088 72.6155 58.2764 44.0023 37.4656 22.4727 38.6331
internal_count=5016 2572 2444 2312 861 979 1593 649 591 223 497 368 250 1451 162 543 307 155 440 298 330 267 99 166 318 236 184 152 91 162
cat_boundaries=0 1
cat_threshold=194
is_linear=0
shrinkage=0.03


Tree=24
num_leaves=31
num_cat=0
split_feature=12 24 5 5 26 28 28 23 20 13 10 13 4 27 12 27 14 3 12 1 9 14 11 29 6 30 29 10 27 31
split_gain=116.121 54.7237 50.6186 44.4738 24.4417 21.4308 17.494 12.1433 11.1867 8.23802 8.01709 7.57801 6.87561 6.31566 8.38511 8.13355 6.29959 6.2613 5.74617 5.71863 6.62451 5.34103 4.93023 4.87528 4.9902 4.79035 6.85256 6.32112 5.46795 4.77528
threshold=0.76450000000000007 1.0000000180025095e-35 1.0000000180025095e-35 1.0000000180025095e-35 0.58150000000000002 0.60762548262548266 0.63688813514232512 1.5000000000000002 1.0000000180025095e-35 2.5000000000000004 0.45000000000000007 2.5000000000000004 10450.000000000002 6550.0000000000009 0.51550000000000018 32650.000000000004 41.500000000000007 2.5000000000000004 0.61150000000000004 30650.000000000004 92400.000000000015 35.500000000000007 3450.0000000000005 0.79755575247378541 11.500000000000002 4550.0000000000009 0.76912982031092281 0.18250000000000002 21150.000000000004 0.718507961187412
decision_type=2 2 2 2 2 2 2 2 2 2 2 2 2 2 2 2 2 2 2 2 2 2 2 2 2 2 2 2 2 2
left_child=1 3 4 5 -2 7 19 9 17 10 16 13 -11 -7 -15 25 23 21 -18 -6 -21 -8 -20 24 -1 27 -27 -16 -29 -25
right_child=2 -3 -4 -5 6 11 8 -9 -10 12 -12 -13 -14 14 15 -17 18 -19 22 20 -22 -23 -24 29 -26 26 -28 28 -30 -31
leaf_value=-0.017459066501605981 0.016336919207986651 0.031394354312665261 0.02154338601509042 0.02797760674330509 -0.010409058871885493 -0.010793957789167115 -0.015514904987497394 -0.027906352987269706 -0.025480625072010772 0.0020082174821998535 0.011968874379516397 0.023033126776589433 0.02376091813894923 0.020317543939296363 0.029370710315763448 -0.016676301059515904 0.0085261923078002594 0.009910944073685311 -0.017662733705325735 -0.022041600700360632 0.0010064127786333539 0.0025857849891561696 0.00071385800273907475 -0.018693912083775216 0.0006676614187798378 0.0092830733210510687 -0.019888313701737621 -0.0016324690469364444 0.022206473397728282 0.0011166686413833231
leaf_weight=66.868946224451065 20.890084877610207 75.602008864283562 36.856927037239075 62.986449718475342 62.166249096393585 14.35000456869602 26.811988189816475 14.317196846008299 17.547605872154236 46.773369714617729 24.859902739524841 31.821453526616096 16.388584345579147 39.505308255553246 13.09076815843582 12.761400297284125 43.440151706337929 31.719741344451904 18.253284260630608 257.16140143573284 11.553209871053694 28.9023567289114 36.991820573806763 11.702616930007933 16.873575687408447 16.005957126617435 10.173036485910414 26.832367435097694 10.617043703794478 53.567045748233795
leaf_count=284 90 352 157 293 270 61 114 64 75 199 106 138 69 170 56 53 182 132 78 1129 50 121 157 50 71 68 43 114 45 225
internal_value=-0.000479919 0.00770541 -0.0114738 0.00456447 -0.0142204 0.00166105 -0.0157529 -0.00262856 -0.00496346 -0.00139167 -0.00365997 0.0101663 0.00820843 0.00703217 0.00914991 0.00388304 -0.00531185 -0.000368025 0.000571461 -0.0191258 -0.0210506 -0.00636078 -0.00576283 -0.00916411 -0.0138763 0.00763967 -0.0026598 0.0128728 0.00590914 -0.00288548
internal_weight=1157.39 663.782 493.61 588.18 456.753 525.194 435.863 350.036 104.982 335.719 272.557 175.157 63.162 143.336 128.986 89.4806 247.697 87.4341 98.6853 330.881 268.715 55.7143 55.2451 149.012 83.7425 76.7192 26.179 50.5402 37.4494 65.2697
internal_count=5016 2878 2138 2526 1981 2233 1891 1485 442 1421 1153 748 268 610 549 379 1047 367 417 1449 1179 235 235 630 355 326 111 215 159 275
is_linear=0
shrinkage=0.03


Tree=25
num_leaves=31
num_cat=3
split_feature=2 35 25 2 25 2 35 34 2 2 29 25 2 10 27 10 27 10 9 9 23 16 27 9 0 17 16 16 9 29
split_gain=253.069 76.7515 55.9599 34.4962 17.9568 17.3305 21.359 9.99228 9.91657 8.96409 8.72105 6.87488 6.63296 5.99887 5.88737 5.84914 5.35869 5.19584 5.44309 7.76091 5.18422 6.14956 6.67304 5.97665 5.05096 4.8192 4.58536 5.34335 4.20917 3.48291
threshold=662.50000000000011 0 13.250000000000002 592.50000000000011 7.6000000000000005 753.50000000000011 1 2 581.50000000000011 507.50000000000006 0.40554764075678146 40.250000000000007 704.50000000000011 0.10850000000000001 30350.000000000004 0.26350000000000007 27250.000000000004 0.21250000000000002 34950.000000000007 25450.000000000004 1.0000000180025095e-35 179.50000000000003 36350.000000000007 35850.000000000007 33.500000000000007 3.5000000000000004 260.50000000000006 152.50000000000003 72700.000000000015 0.89444666607423218
decision_type=2 1 2 2 2 2 1 1 2 2 2 2 2 2 2 2 2 2 2 2 2 2 2 2 2 2 2 2 2 2
left_child=1 8 5 9 7 6 10 24 -1 -3 -2 14 -12 -10 26 -9 -14 -8 19 -19 21 22 -15 29 -5 -16 27 -11 -20 -23
right_child=2 3 -4 4 -6 -7 17 15 13 11 12 -13 16 20 25 -17 -18 18 28 -21 -22 23 -24 -25 -26 -27 -28 -29 -30 -31
leaf_value=0.026106347398684858 -0.022489752835113695 0.020817764203258489 0.022106949758999982 0.0075187084775069505 0.020865644582958226 -0.027103031567472104 -0.024385417307428655 -0.025688124224605098 -0.00376316403229049 -0.0052784011843393722 0.012311510930774124 0.026870295865864712 0.0070470410364396633 0.023105634556683845 0.019358106213564253 -0.0050026802122253196 -0.015888156256695627 -0.014347534241476292 -0.025812370071667184 0.01115648179829287 0.029300327313499429 -0.011575576450899018 -0.0018211847527181294 0.020358031554492419 -0.009752121004070604 -0.0010401399329572072 -0.020004474057333726 0.017765041196131922 -0.0027939113628395237 0.009165645782168037
leaf_weight=208.34467794001102 11.440581679344175 49.049318447709084 30.04594324529171 27.345733076334 13.817058876156805 160.120496571064 118.18838752806187 60.297626405954361 12.649107843637465 33.348108559846878 36.814790144562721 9.8628403693437559 15.131555035710333 58.456068024039268 23.077030152082443 16.725356891751289 18.271511390805244 32.102522194385529 36.145786270499229 13.939528480172156 25.959566876292229 17.086819007992748 11.1727187782526 11.559476733207701 29.770168408751488 17.506105482578278 10.388588055968283 10.178956463932989 9.4434894025325757 9.9539273679256421
leaf_count=950 47 210 139 113 60 729 530 252 52 137 150 43 62 243 95 68 76 135 158 59 115 70 46 48 124 72 43 42 41 41
internal_value=-1.5267e-06 0.0121 -0.0164794 0.000559915 -0.00969043 -0.0191328 -0.0145996 -0.0130982 0.0212237 0.0104793 -0.000275008 0.00532019 0.00382895 0.0154642 0.00256071 -0.0190286 -0.00568737 -0.0191999 -0.014184 -0.00648303 0.0173053 0.0139487 0.0191667 0.00405586 -0.00129036 0.0109234 -0.00389961 0.000654076 -0.0213621 -0.00383514
internal_weight=1138.19 656.549 481.645 301.367 147.956 451.599 291.478 134.139 355.182 153.411 81.6584 104.362 70.2179 146.838 94.4988 77.023 33.4031 209.82 91.6313 46.0421 134.189 108.229 69.6288 38.6002 57.1159 40.5831 53.9157 43.5271 45.5893 27.0407
internal_count=4950 2824 2126 1259 617 1987 1258 557 1565 642 335 432 288 615 389 320 138 923 393 194 563 448 289 159 237 167 222 179 199 111
cat_boundaries=0 1 2 3
cat_threshold=12 8 358
is_linear=0
shrinkage=0.03


Tree=26
num_leaves=31
num_cat=1
split_feature=35 25 5 5 25 28 28 13 9 13 12 29 30 31 0 10 30 14 1 21 9 9 12 12 12 10 31 16 22 27
split_gain=120.662 50.9741 39.6506 33.1715 35.2679 20.3394 11.2373 10.0205 9.05568 8.388 7.60885 7.14579 6.56304 6.52233 6.05117 5.14427 5.28135 8.21122 6.59524 9.11403 5.08462 12.755 4.97959 4.64154 4.47249 4.29587 5.9188 5.82293 4.14423 5.41791
threshold=0 12.500000000000002 1.0000000180025095e-35 1.0000000180025095e-35 13.250000000000002 0.28551049521092325 0.46749203054340577 1.5000000000000002 92400.000000000015 2.5000000000000004 0.59550000000000003 0.48551223152445144 13150.000000000002 1.0352031158502542 37.500000000000007 0.34050000000000008 4550.0000000000009 37.500000000000007 22450.000000000004 79.350000000000009 31050.000000000004 22850.000000000004 0.91150000000000009 0.55550000000000022 0.79350000000000021 0.13050000000000003 1.0233010587277171 80.500000000000014 3.5000000000000004 38150.000000000007
decision_type=1 2 2 2 2 2 2 2 2 2 2 2 2 2 2 2 2 2 2 2 2 2 2 2 2 2 2 2 2 2
left_child=3 2 6 4 5 10 8 12 25 13 28 -11 14 15 -8 16 18 -18 19 -7 21 -12 -4 -15 -3 -2 -27 -28 29 -1
right_child=1 24 22 -5 -6 9 7 -9 -10 11 20 -13 -14 23 -16 -17 17 -19 -20 -21 -22 -23 -24 -25 -26 26 27 -29 -30 -31
leaf_value=0.002506653764060016 -0.024612347596863381 0.035560396333489168 0.026384262675296095 0.029096134578073075 0.028953306462750884 0.011934077213220599 -0.0093731128611445908 0.0082205198219843911 0.0050052781032617153 -0.00065580525008715484 -0.013549038651637852 0.02796231277800959 0.0060325975183348427 0.0086533933983691906 -0.026119561351305144 0.017492116039817172 -0.013375106349550936 0.010046080567282886 0.021547764660131405 -0.018816647349895989 -0.016337488667226979 0.017675187926933726 0.0029699751988169053 -0.014288694953425206 0.01307277734397499 -0.018122889861381355 -0.017013698096190712 0.0066337286635257866 -0.0046364722591977119 0.02285461524720904
leaf_weight=56.778817638754845 86.255015030503273 14.288339853286741 21.158088982105255 68.598761960864067 56.587119683623314 26.319815918803215 78.430280163884163 27.994120463728905 14.554547175765036 9.9434809237718564 30.000320270657539 33.797588810324669 16.009842991828918 11.399831950664522 26.024771466851234 49.741812437772751 24.304513722658157 25.645436719059944 29.137234851717949 10.53359618782997 43.49261263012886 16.651292413473129 13.502032011747358 18.115689262747765 23.506996631622314 207.41770178079605 15.285893529653547 18.77521824836731 44.894332811236382 13.073819726705549
leaf_count=240 386 67 92 327 267 113 331 118 63 43 130 147 68 49 112 214 104 108 124 45 188 71 57 77 101 915 67 81 190 55
internal_value=1.46176e-06 -0.0097388 -0.0123518 0.00964421 0.00706443 0.00415629 -0.0145541 -0.00751476 -0.0175459 0.0100678 -0.00276823 0.0217125 -0.0112459 0.00726464 -0.0139578 0.00956597 0.00592647 -0.00142632 0.0113702 0.00262861 -0.00919367 -0.00213577 0.0179227 -0.0054409 0.022934 -0.0185716 -0.0162295 -0.00433375 0.00235056 0.00684518
internal_weight=1132.22 563.203 525.408 569.016 500.417 443.83 490.747 148.459 342.288 238.939 204.891 43.7411 120.465 195.198 104.455 165.682 115.941 49.95 65.9906 36.8534 90.1442 46.6516 34.6601 29.5155 37.7953 327.734 241.479 34.0611 114.747 69.8526
internal_count=4950 2458 2290 2492 2165 1898 2141 629 1512 1024 874 190 511 834 443 708 494 212 282 158 389 201 149 126 168 1449 1063 148 485 295
cat_boundaries=0 1
cat_threshold=12
is_linear=0
shrinkage=0.03


Tree=27
num_leaves=31
num_cat=3
split_feature=2 35 25 2 2 35 25 34 2 2 29 25 2 13 10 27 27 10 9 9 0 16 27 6 1 17 16 16 8 9
split_gain=235.231 69.1466 50.6941 31.9764 16.5631 19.4581 16.4052 9.65026 9.4293 8.30434 8.19784 6.21036 6.20708 5.73335 5.64334 5.6097 5.09498 4.87737 5.1419 7.38257 4.74414 4.68175 6.04086 5.54308 6.92527 4.51215 4.38876 5.04959 4.2593 4.00771
threshold=662.50000000000011 0 13.250000000000002 592.50000000000011 753.50000000000011 1 7.6000000000000005 2 581.50000000000011 507.50000000000006 0.40554764075678146 40.250000000000007 704.50000000000011 1.5000000000000002 0.11050000000000001 30350.000000000004 27250.000000000004 0.21250000000000002 34950.000000000007 25450.000000000004 33.500000000000007 193.50000000000003 36350.000000000007 8.5000000000000018 32350.000000000004 3.5000000000000004 260.50000000000006 152.50000000000003 76150.000000000015 72700.000000000015
decision_type=2 1 2 2 2 1 2 1 2 2 2 2 2 2 2 2 2 2 2 2 2 2 2 2 2 2 2 2 2 2
left_child=1 8 4 9 5 10 7 20 -1 -3 -2 15 -12 -9 -10 26 -14 -7 19 -19 -5 22 -16 24 -23 -17 27 -11 -6 -20
right_child=2 3 -4 6 28 17 -8 13 14 11 12 -13 16 -15 21 25 -18 18 29 -21 -22 23 -24 -25 -26 -27 -28 -29 -30 -31
leaf_value=0.025243834346503832 -0.02193367777107165 0.020299483464582109 0.021047562157412252 0.0076146682769992853 -0.028271225167154419 -0.023540735679139731 0.020168790651494743 -0.024792836694532586 -0.0030060422852662564 -0.0049203218048955695 0.01181900067014067 0.025961821973016542 0.0068119676004232124 -0.0043223373559974718 0.024168986063038928 0.019058415946499371 -0.015566753833173538 -0.013844736155539295 -0.025010998482131969 0.011038026226614504 -0.0091417347779988046 -0.014157878326165043 0.0032808944511487042 0.019365047328309109 0.016023083317927747 -0.00072263218130763239 -0.019351961211135516 0.017498733578149801 -0.011762553075820092 -0.0025477882446016927
leaf_weight=205.13640210032463 11.407279908657072 48.725945308804512 29.579660221934319 27.318737030029297 137.85721354186535 116.64363260567188 13.689259856939314 59.950144648551941 13.851549312472342 33.33564081788063 36.797502756118774 9.7195586711168271 15.137692451477049 16.56748454272747 73.336776718497276 23.025916293263435 18.214410990476608 31.97580386698246 35.766860321164131 13.9371440410614 29.630658462643623 14.329381644725801 15.756034612655638 18.91328327357769 9.7934414148330671 17.490214601159096 10.385921955108641 10.156403243541716 20.114364236593246 9.4179017543792707
leaf_count=950 47 210 139 113 636 530 60 252 57 137 150 43 62 68 312 95 76 135 158 59 124 59 66 80 41 72 43 42 93 41
internal_value=8.42339e-06 0.0117184 -0.0159631 0.000738345 -0.0184936 -0.0140563 -0.00915582 -0.0124169 0.0204427 0.0103075 -0.000357586 0.00533671 0.00361217 -0.0182582 0.0148275 0.00271839 -0.00559886 -0.0184813 -0.0136217 -0.00614597 -0.00095587 0.016714 0.0206281 0.00805497 -0.00161629 0.0108869 -0.00359413 0.000854192 -0.0263425 -0.0206354
internal_weight=1127.96 651.113 476.849 299.996 447.27 289.298 147.156 133.467 351.117 152.84 81.5569 104.114 70.1496 76.5176 145.98 94.3941 33.3521 207.741 91.0977 45.9129 56.9494 132.129 89.0928 43.0361 24.1228 40.5161 53.878 43.492 157.972 45.1848
internal_count=4950 2824 2126 1259 1987 1258 617 557 1565 642 335 432 288 320 615 389 138 923 393 194 237 558 378 180 100 167 222 179 729 199
cat_boundaries=0 1 2 3
cat_threshold=12 8 358
is_linear=0
shrinkage=0.03


Tree=28
num_leaves=31
num_cat=3
split_feature=2 35 25 2 2 35 25 34 2 2 29 25 2 10 10 27 27 10 9 9 23 16 6 27 16 16 10 8 27 18
split_gain=222.984 65.6677 48.1382 30.2485 15.9442 18.4825 15.5678 9.15484 9.14462 7.8892 7.7915 5.96052 5.86332 5.56899 5.35679 5.30716 4.83395 4.69673 4.84913 8.74188 4.62509 6.06655 6.57443 6.33695 4.17479 4.79497 4.15806 4.09922 3.91849 3.78521
threshold=662.50000000000011 0 13.250000000000002 592.50000000000011 753.50000000000011 1 7.6000000000000005 2 581.50000000000011 507.50000000000006 0.40554764075678146 40.250000000000007 704.50000000000011 0.26350000000000007 0.11050000000000001 30350.000000000004 27250.000000000004 0.21650000000000003 34950.000000000007 25450.000000000004 1.0000000180025095e-35 179.50000000000003 8.5000000000000018 36350.000000000007 260.50000000000006 152.50000000000003 0.16550000000000004 76150.000000000015 53350.000000000007 1.0000000180025095e-35
decision_type=2 1 2 2 2 1 2 1 2 2 2 2 2 2 2 2 2 2 2 2 2 2 2 2 2 2 2 2 2 2
left_child=1 8 4 9 5 10 7 26 -1 -3 -2 15 -12 -9 -10 24 -14 -7 19 -19 21 23 -23 -16 25 -11 -5 -6 -20 -17
right_child=2 3 -4 6 27 17 -8 13 14 11 12 -13 16 -15 20 29 -18 18 28 -21 -22 22 -24 -25 -26 -27 -28 -29 -30 -31
